//------------------------------------------------------------------------------------
// Tucano Neural Network (epoch: 152)
//------------------------------------------------------------------------------------

static S16 TNN_INPUT_WEIGHT[TNN_INPUT_SIZE][TNN_HIDDEN_SIZE] = {
    {-10,-51,-51,-11,14,27,-21,-2,-33,50,12,-41,-45,49,53,40,-30,34,-58,-51,28,-59,23,-61,-49,-18,21,13,32,47,31,-41,59,44,11,9,8,53,-57,39,40,19,61,59,4,51,35,38,21,41,51,-13,46,10,-11,60,56,-53,10,25,57,-21,48,52,-41,-4,-1,30,-15,5,5,-39,-39,3,-43,28,-9,56,2,-51,33,-10,-1,15,-63,51,12,57,62,-40,18,55,1,2,44,24,62,-21,-8,-17,47,61,7,-56,0,27,36,55,19,-25,-60,-10,28,2,-58,29,-10,18,22,-12,42,-22,-20,-19,43,-40,-59,41,2,-3,-39,-14,-6,32,-6,58,-3,-34,50,-47,4,53,6,-30,-7,12,62,45,-33,21,-30,-54,62,12,-10,42,36,-5,20,-25,54,45,24,-16,13,-46,-21,-53,-16,-35,-36,52,-45,33,-42,10,-18,-43,-7,12,41,25,21,40,-25,-53,18,-53,4,-24,-14,-4,-43,-54,43,34,-36,-42,45,11,-13,-55,0,4,42,20,-48,-40,40,7,36,18,-30,-6,-4,7,4,-50,17,-54,-10,-60,5,9,-50,-15,-20,-23,5,-38,51,56,-30,-12,-2,-52,-56,12,-28,48,-43,-56,3,-10,1,62,60,-57,-51,14,-47,1,17,21,-52,30,-58,-8,-56,11,16,59,3,49,-17,-63,61,-9,13,-31,-24,33,-24,42,-41,41,41,-45,47,53,33,63,-8,-13,20,2,-46,26,57,-38,-26,9,-43,40,-4,2,41,-7,57,-9,25,-31,-40,-63,-52,-18,42,52,0,26,42,-30,25,-30,20,-17,36,38,-55,29,63,-18,-24,-43,-41,35,23,-63,-35,16,-9,53,48,14,54,59,60,32,47,-2,-5,25,31,-43,59,-11,2,31,-37,11,-2,-37,57,37,-17,-47,8,-58,-47,36,21,7,26,6,-42,16,2,-46,-15,-14,15,43,-52,-17,63,-56,34,2,38,61,-50,-27,-40,-57,-54,6,-41,18,12,-24,-8,-29,46,-46,40,-60,33,-21,-42,-45,28,37,61,40,-44,61,47,53,0,22,50,13,59,-53,20,-59,17,43,23,-34,-45,-49,0,-63,-31,-24,-59,-61,18,-37,-42,-16,63,-45,-40,-45,-47,-56,-55,16,29,59,-34,24,-58,49,29,22,28,-11,52,46,3,-12,47,36,27,51,38,-18,-50,59,28,-50,-49,52,-32,-33,59,-24,46,24,-28,-51,-14,-23,61,-48,63,26,3,51,9,-56,-24,-7,43,-61,-19,18,-15,-5,13,-50,7,28,-62,39,59,61,-48,42,22,-13,54,-56,27,52,-41,26,14,26},
    {14,-40,34,53,16,14,56,60,-31,-23,-9,46,-9,61,10,-7,36,5,-10,51,-16,-52,-25,-25,-44,-62,-37,-21,27,40,-58,-21,-63,39,-32,16,-9,-39,12,22,0,-61,5,55,-63,-48,-16,37,21,36,25,-58,48,63,-20,-60,-63,5,-18,28,-18,-12,-57,-18,-37,-25,61,17,-1,10,-23,63,12,45,54,13,60,-25,-13,18,-53,-51,23,58,-52,-61,62,-52,7,-19,40,53,31,46,-28,58,-42,-30,11,20,43,51,19,-7,32,10,-58,29,48,-7,-16,59,4,-56,53,16,-54,52,28,17,-31,4,7,63,-12,42,57,8,-52,4,-35,55,-8,48,-16,-39,-5,-10,53,-20,46,-26,-25,-12,-19,-35,-60,-9,-47,31,-56,-15,-28,15,-16,22,-6,-22,-32,5,46,-3,-3,-26,-19,44,-1,39,-29,-11,-45,-47,25,-7,3,-57,20,6,-3,36,-25,4,-42,9,-44,5,-31,13,46,0,-45,28,59,15,-61,-23,-3,0,-48,30,52,-30,47,14,25,-13,20,-17,57,-47,-45,-32,21,-24,41,40,44,-54,-10,27,9,8,-8,5,-39,-5,46,20,59,61,-12,47,-33,-29,-1,56,21,-45,-25,14,-28,-6,46,56,33,24,33,14,33,-41,-21,-20,30,33,49,54,-35,31,11,-40,28,62,-56,59,-31,5,52,54,24,-36,5,59,21,-12,52,-9,-52,21,-58,45,44,-16,-38,11,-46,-53,1,-18,41,-50,4,6,-52,11,2,-19,-46,-8,-29,41,18,39,37,-23,-36,26,30,-25,-16,36,-43,-35,-43,-18,39,-26,-8,-23,18,-30,-9,-40,40,1,35,-20,45,52,34,-47,30,-10,55,3,29,-45,-34,-3,-6,13,-31,13,41,-11,58,16,26,-13,57,-18,20,-15,4,-3,49,-24,39,31,-35,10,47,58,63,39,-1,29,58,28,-38,-12,-21,-5,-62,-44,47,60,36,9,-17,30,54,-60,-49,-4,0,-63,35,-24,32,63,50,15,58,49,-8,-7,15,-14,-43,40,37,-1,-29,38,18,-45,34,-8,27,-46,-41,18,-43,-26,-50,20,-25,49,59,-57,48,46,22,43,31,-50,-28,-17,0,-7,-40,-27,55,-5,-52,10,12,45,-62,-23,62,-39,58,-44,-1,-55,39,36,57,35,42,42,17,0,21,-14,14,57,32,-50,-14,55,-14,-23,-14,-2,51,62,-21,53,-24,-22,-50,-30,-3,12,-21,-28,-15,-27,-57,-36,-49,24,27,36,-54,-21,29,41,-8,-48,32,41,-7,-45,-25,-20,-46,17,-31,-7,58,-17,26,-8,58,-58,27,-21,-22,34},
    {5,-7,-5,-30,-34,3,11,58,-19,-60,-53,-50,44,2,-31,-44,46,-14,36,-49,42,30,-2,4,-41,-8,9,49,34,51,19,-23,-20,-50,9,8,17,-42,3,61,-39,13,-52,-58,-47,-20,-39,62,29,60,-50,8,27,10,-51,49,-62,22,34,36,10,-9,-51,53,3,22,-1,-43,43,-61,-45,-59,16,-34,-54,32,9,-30,30,-24,-34,43,47,57,-9,60,42,-8,19,12,-36,-34,-61,-23,-44,6,62,18,27,41,20,45,45,-27,-52,55,-58,21,-39,35,61,-9,15,45,-16,-58,41,-37,-2,-2,39,25,27,42,-62,46,-15,63,0,-51,41,-42,58,23,-5,-57,14,0,27,39,-28,25,-33,51,6,14,57,-15,40,-9,45,15,-47,8,-6,-46,-8,42,-46,56,54,59,-49,48,18,8,55,-30,-56,19,-55,-20,-19,-24,-33,50,53,-40,-28,29,14,-46,-19,30,26,38,48,-46,16,-61,-53,7,61,-39,-7,15,32,-16,48,40,-61,57,-44,-17,-31,-13,-30,-41,9,5,51,-39,22,-31,54,-15,-56,39,2,24,41,12,-32,38,36,24,-9,5,-56,-24,-18,-53,-30,1,-7,2,51,26,24,-2,-32,12,21,54,44,12,-24,52,-12,41,12,-34,-10,44,-59,-37,4,-5,31,11,33,-50,22,-60,14,-49,5,2,41,-34,63,-54,41,20,63,22,-31,-24,10,20,-47,-41,49,6,-60,53,32,7,-15,0,-44,-45,14,41,-42,-34,56,26,31,34,55,31,43,33,-12,43,-7,20,-45,-61,-22,-29,-38,-37,41,-35,-47,9,36,1,-53,55,19,24,33,40,54,25,3,21,-4,-4,-11,-24,-35,40,-44,20,-2,-26,23,38,8,49,-63,-14,-49,-46,59,50,18,-57,42,-25,31,11,-48,21,-26,18,-20,33,-50,31,-54,-21,8,-35,63,-58,2,22,43,-52,8,44,-2,22,62,-7,8,17,0,-12,55,-33,63,-57,51,-27,24,-33,-57,38,62,-48,-47,7,-19,-47,13,46,38,-6,57,-16,-26,-9,-58,-27,47,14,53,-16,-62,45,13,-63,52,1,-26,12,32,-19,-12,31,-3,4,-25,41,20,51,23,-4,-19,17,42,18,-55,47,55,56,-2,44,-24,0,26,53,0,14,-9,38,-36,-41,-44,14,53,16,-45,-35,-6,39,-47,-46,-29,-2,34,-51,-48,43,60,-57,36,-5,51,-52,57,13,-63,-5,-36,-8,-30,-9,13,-11,-58,3,-59,-39,31,-2,63,48,14,-30,-18,-14,-18,-3,-34,-22,3,-62,35,-8,-50,29,-58,-49,-39,-31},
    {5,-6,23,-44,45,28,22,50,52,-9,-15,51,-25,63,-42,19,-14,3,-47,14,44,20,16,16,-52,30,-17,-47,44,6,-14,-14,63,-54,5,45,37,-36,31,26,17,-47,14,56,-48,35,11,0,-25,27,-48,-44,-15,31,36,-3,-2,-45,12,-21,25,62,27,25,-56,-30,6,45,-3,-25,8,-49,-9,-40,-57,6,58,18,-57,-30,-17,-42,-10,30,53,-37,-37,-13,-19,39,28,-57,38,-7,31,45,25,-26,27,-41,12,-27,-27,-60,-4,-20,9,-9,62,15,23,-19,37,-50,-53,26,-24,-26,-50,20,-50,41,26,51,-29,-6,33,59,31,-3,-45,-20,32,-8,-17,-35,34,56,18,32,7,-21,-50,-18,-8,-39,-56,30,-2,-43,-12,10,62,-50,-2,-31,7,-32,-35,-24,27,-17,19,-3,38,-61,24,8,58,-20,-22,2,21,-8,47,-51,15,55,43,-51,-52,-32,23,-53,-18,-42,-21,52,-11,7,-35,-47,54,47,13,28,49,-25,-27,43,17,14,-18,-25,-58,-35,-12,21,-43,-32,33,-32,0,-6,-21,44,15,20,33,-60,-35,61,-43,-45,44,33,46,29,-56,-44,8,25,34,54,-63,40,-44,-12,-2,-24,19,-32,7,-45,24,49,63,-24,6,32,-20,34,29,0,53,9,-30,35,-24,-23,54,47,-62,25,38,-62,1,57,-10,62,-31,-54,-34,40,-35,53,25,-36,-34,-31,59,9,-60,25,-55,56,-28,-21,27,10,18,18,-5,20,-20,-31,22,44,-37,-51,42,-5,-42,-55,-28,-13,62,60,14,-36,-35,10,36,-31,-28,45,-39,6,-40,51,-46,42,6,11,0,50,44,-41,30,-57,-29,9,1,-7,18,36,43,16,33,-6,43,62,-60,16,-33,-25,-1,-9,45,22,-21,63,1,48,10,-63,34,-8,-40,1,-1,-6,-52,63,50,29,36,29,-18,5,-41,-38,3,-38,42,34,0,-23,-39,-18,63,2,-18,0,-12,55,1,-42,-16,24,23,45,-46,34,45,-59,0,17,33,45,-40,55,-57,26,-46,48,-2,17,-38,21,63,-39,-39,-19,24,11,-27,-38,33,20,50,-6,2,-60,-36,-16,-55,27,-62,41,9,-39,33,15,51,51,0,-15,5,25,-57,4,50,-33,49,10,42,-41,36,11,43,23,-59,-18,26,-31,28,35,60,30,12,5,54,-17,-42,42,-30,21,-37,38,-16,-31,-20,-30,0,-34,44,-22,-12,17,52,-33,-23,57,12,-60,-38,-23,38,-41,-57,-12,27,61,33,48,39,-60,6,-61,41,53,-28,-42,-40,34,-13,-60,-52,38,21,-63},
    {-58,61,57,17,-62,-44,58,39,-22,-62,-36,-58,63,60,53,38,63,-4,41,41,-14,-51,62,8,46,-14,12,57,-40,-30,57,-34,-32,51,46,-31,-56,41,-55,-14,43,-28,-9,42,-31,-19,16,-31,40,-6,-54,-38,5,-55,34,-11,-6,-16,-18,17,17,-24,46,48,-36,29,-46,-29,7,-37,20,-13,-1,-53,-35,31,-8,45,63,-32,-24,-54,-6,45,-46,-35,-30,11,11,15,-35,-35,54,-52,-50,-45,41,-32,-11,-15,-6,-55,34,55,-44,62,22,10,43,22,42,-44,31,-28,-63,49,0,-30,-3,-52,48,25,-24,38,36,-10,57,14,20,-18,62,-50,-9,32,-58,10,31,28,-42,11,-12,63,30,-45,-29,30,-59,34,63,0,45,48,-37,-42,23,62,10,16,12,-32,62,11,-18,-10,-20,-13,63,-52,-48,-43,22,3,-43,-10,21,-8,-44,25,-38,-44,-37,-56,-60,-11,-34,26,-12,40,-21,-63,-56,-23,11,-11,30,55,39,29,-60,55,50,25,-5,-57,-48,-47,-1,-29,41,24,-9,-59,31,-6,-6,60,-43,44,36,0,45,44,40,-6,-31,6,-15,-56,-27,-12,63,-41,-50,-6,-34,-35,9,28,0,-12,-11,54,-8,-44,-16,48,-47,4,29,53,-59,10,33,44,-60,-61,-13,-11,-53,23,40,-54,46,53,2,-52,-45,-52,40,18,0,-35,8,54,-16,56,39,0,-2,4,-9,1,-49,-39,-18,-45,-37,32,6,-26,-8,-17,-17,-26,-27,49,-14,-8,61,-38,-54,-3,-10,18,-12,37,10,-37,-25,-56,30,28,8,45,53,54,63,-48,22,5,-10,-49,52,35,-12,-39,21,37,15,18,63,25,-48,-11,-20,2,-37,53,29,1,61,-4,-33,6,-22,-44,-3,-22,-28,-44,47,24,-30,35,-3,21,60,-46,-4,11,36,-5,-27,51,47,16,-9,-53,5,-44,11,3,15,41,-54,56,61,6,-29,-31,25,-46,56,59,53,-11,17,49,6,-51,-2,-21,6,33,-33,-10,-14,20,0,55,40,-52,-4,-8,52,5,-15,49,-52,19,-45,37,36,-53,32,25,0,-13,11,-58,-1,-55,-15,-59,41,15,-5,-36,-28,58,-44,-51,-58,14,3,58,-44,52,44,-32,7,62,-59,-19,-54,37,-57,8,-39,17,14,22,25,63,27,3,14,-42,30,50,-47,50,62,-42,1,2,-48,21,-8,60,52,62,58,57,-20,-60,31,-14,12,56,-61,-36,14,27,-36,-22,-33,41,0,61,27,15,48,26,37,-14,-35,53,-57,19,49,59,18,43,53,61,47,21,-17,-3,13,-14},
    {24,-35,-51,51,6,-20,28,-57,-23,-7,22,-38,-45,-4,10,-16,-15,17,-60,-30,13,21,-50,3,19,61,-38,-61,-5,39,-12,-45,-60,0,-58,9,43,34,16,-43,-36,-25,-18,-17,33,56,29,-45,10,33,-11,-40,-8,2,26,-53,0,52,-50,57,27,0,-51,30,-62,-45,-23,45,53,56,-62,-47,-32,-16,0,-63,-23,-34,-44,50,62,7,-54,-10,-54,36,0,9,24,13,3,-11,-49,15,-44,-48,34,-4,60,23,-11,62,40,19,-17,-24,20,22,5,39,8,3,-16,18,57,-7,-8,-6,-62,-47,-57,4,4,-42,-43,23,-26,54,-44,-29,14,8,-31,-9,-35,15,30,49,-25,-28,25,47,39,-55,2,32,0,57,-38,2,-53,-31,-56,14,-9,-36,-25,27,-45,-5,61,32,-61,-33,-40,-33,45,54,-47,-44,-37,41,-60,-61,49,5,34,-13,-1,60,53,8,-34,60,-40,19,-39,-2,-17,-21,56,-20,-52,58,9,-28,-38,-8,-38,-22,11,-11,-45,14,-9,-59,-44,-38,-8,18,-42,-19,-37,-13,-22,-13,-57,1,48,-11,44,40,32,55,34,-21,-36,60,33,-10,-26,-19,41,-7,58,-32,-2,-50,-7,52,31,14,-31,58,-62,10,-18,-55,-52,-34,-3,55,-58,-34,47,40,7,-52,36,-22,0,-53,21,-22,3,16,9,-63,30,-61,53,-1,17,-41,-7,18,32,37,26,43,-60,-40,35,-55,-10,19,49,61,30,22,-25,-32,32,60,9,-27,12,-45,-26,-21,-42,-37,40,38,-15,-30,-6,-46,-56,-43,61,-53,-19,32,-44,33,-11,-59,31,-44,26,-58,-13,-4,-62,60,31,14,-49,-59,56,-27,-32,33,-52,16,-61,4,33,-54,25,30,-43,-58,0,-24,39,52,-20,6,-56,-58,12,-5,1,14,-9,-31,-35,5,-26,-43,41,5,54,52,-42,56,-6,55,-61,-44,21,-40,-39,-42,-1,-63,-54,42,7,-46,48,-44,11,-14,34,-61,18,62,8,56,-44,-13,-2,-54,-24,19,-61,32,10,-58,51,-31,-35,-51,-10,26,-50,-1,4,21,16,-11,41,-35,38,11,-33,-7,9,39,-15,28,-38,45,37,0,0,40,-30,-52,45,-42,-20,-54,-29,32,36,-16,-32,-22,-58,47,29,46,-52,4,-6,-21,60,-60,-46,-19,31,-20,-37,5,43,27,-18,-51,38,-37,-29,-46,-27,4,50,-55,52,-46,-14,57,-62,-48,39,-51,19,-30,-8,16,-27,9,60,-59,52,-40,9,31,50,55,44,24,-46,-49,42,-9,18,28,-1,7,46,48,0,47,-63,-24,60,20,8,-12},
    {-35,47,75,-25,41,58,-15,-3,16,-44,-24,-2,-59,3,12,55,61,-32,32,-7,38,-15,-22,-25,-23,-22,14,-27,61,-40,63,-30,-60,21,3,74,-3,70,-15,-57,-25,34,34,-30,-25,-31,-38,-31,0,37,17,-9,-24,-51,11,5,-6,-89,37,-32,1,-9,12,-12,-31,-48,-20,34,-60,30,52,-6,-2,21,28,49,41,57,-75,-25,16,30,24,54,33,-37,0,-50,0,-25,-7,48,40,-59,-36,63,-48,-5,28,-33,-29,20,0,39,-29,-36,5,-60,-29,10,-12,59,-24,65,50,-53,-42,-19,-28,5,13,20,-12,-15,20,13,-35,53,-39,-38,-79,-2,43,17,-41,-60,-68,17,-55,-4,-26,-17,-38,25,-15,-44,24,5,2,55,-63,-40,0,-27,32,-43,-61,-44,39,-43,-26,-60,22,-26,22,53,-33,20,8,-24,-70,39,27,-27,-2,-50,1,-42,47,58,-53,35,-45,11,-26,34,20,-13,59,30,24,-22,35,-16,2,-30,-44,33,-42,32,-55,-53,15,40,-3,-51,42,52,-29,5,47,-23,-15,-79,38,9,42,19,60,38,-16,19,-46,55,62,18,-9,-41,-12,2,55,-14,25,9,-29,-30,31,-43,-42,40,36,-69,-20,-61,-56,-42,9,70,23,15,38,35,-14,48,66,-43,-16,-24,-13,46,61,-39,-21,27,61,1,-71,7,33,-35,0,-5,-48,19,6,-25,41,-48,-38,1,18,28,-4,-69,58,-9,-28,-37,34,26,-58,37,-52,-8,7,-61,70,16,20,30,14,-52,-36,-62,49,26,-23,18,41,71,-39,6,-11,8,9,-48,-57,31,-49,47,32,-28,20,22,30,-62,34,25,33,-22,-1,17,-15,21,12,-42,-39,79,44,-36,-9,-65,33,43,16,-24,70,26,-41,-38,6,38,13,-36,20,-16,2,-48,-73,-32,-4,-11,42,36,-40,2,61,-13,-8,32,18,15,31,2,22,-4,25,16,-50,38,43,25,16,-30,53,-56,56,-21,-51,36,14,10,-21,-7,-17,-17,35,-10,48,-36,-41,-8,62,-62,47,12,-3,-8,-36,5,2,75,-9,-52,4,-31,-46,-31,15,-23,55,-44,28,18,14,-30,3,4,0,-9,32,35,72,30,37,35,-14,-29,-36,-11,50,38,-2,-34,48,52,5,-61,-37,-50,-43,-53,-26,-35,-24,-56,-1,50,5,-35,-26,-26,47,-35,-63,21,62,-16,55,-19,46,42,-56,-15,-56,-41,-25,5,-77,-36,26,-16,7,61,15,34,81,-64,-31,-13,-32,61,27,-49,-30,45,44,-37,-30,27,-4,-62,16,23,-3,4,21,53,-53,45,-40,31},
    {-49,9,26,26,-20,24,37,-63,-35,59,61,-57,-62,-40,52,29,-15,-46,-15,53,-34,45,13,22,-14,-23,-12,-4,-56,1,-39,-41,-53,51,49,-9,12,22,-9,41,18,-11,47,20,11,35,-14,60,52,33,50,-45,14,0,40,-63,40,-35,-3,47,29,21,-57,40,8,55,-33,-42,14,21,62,-31,-54,45,52,21,17,-25,18,6,-56,4,24,22,-59,1,23,44,29,-43,28,-4,41,34,-28,-13,26,1,7,-23,-41,6,9,-31,-11,-1,54,-58,36,8,11,44,-51,-28,3,-47,37,-37,61,2,-17,25,62,-39,-3,-30,10,-40,35,-45,0,57,25,-54,-37,-50,8,-47,-44,-19,24,31,-38,37,-60,28,54,40,54,51,-20,-26,13,-22,-2,-53,10,-55,-30,-17,-37,33,-23,51,42,2,-62,-12,19,-42,31,-20,52,56,-46,56,21,-56,32,12,58,-51,49,8,-10,-16,18,-63,-8,51,-17,17,20,22,5,0,-39,7,50,44,28,18,-40,17,11,-22,9,-31,-15,-22,44,-20,-10,30,51,43,-50,5,43,4,-6,-38,-41,-49,48,28,13,-54,-28,0,53,-63,-44,-50,17,30,-9,-37,63,38,4,44,-45,58,10,-58,37,24,11,17,-34,-58,43,-12,-44,27,-47,33,36,-11,-29,25,-11,-10,38,-58,-43,-34,-32,-43,-59,36,-63,-41,30,11,-35,4,-28,40,-42,0,45,-63,52,-63,27,-59,34,0,-7,-59,-37,45,-6,-63,50,14,-33,-45,34,-29,54,34,-7,20,-17,21,-39,17,-2,-18,-45,-21,-17,-56,-20,-53,-51,-50,10,5,-45,36,-13,12,37,-26,-37,-60,-8,61,-26,-18,32,30,-61,-49,-12,-36,32,48,9,51,-36,55,58,7,-62,-57,21,11,12,39,-15,62,-11,-42,-28,14,-38,26,11,-1,-55,-19,-34,-53,-5,16,-25,-37,1,47,-49,29,38,-55,-27,40,-48,57,-11,27,33,36,26,-42,57,61,36,-45,24,-16,17,33,27,47,44,-41,0,-45,-14,-62,-62,0,30,40,7,-60,16,23,60,-59,-13,30,40,-51,51,34,-53,23,53,35,-56,7,4,35,-9,-14,57,54,3,-21,56,5,42,23,-18,-14,26,62,-55,23,-61,-4,-9,43,8,-22,14,19,-62,3,-8,-55,-52,59,44,2,-18,37,-7,48,-47,-14,-9,58,-54,35,-19,36,33,-10,-3,36,48,50,15,-6,-35,-33,-51,-34,33,3,-25,45,0,-45,-16,45,55,40,30,-55,-38,-43,-61,-28,56,-16,-56,26,36,3,-1,21,-9,-49,-49,18},
    {17,-428,-172,-441,56,-2595,-370,661,132,888,932,-2266,573,-5752,312,-104,1424,-1887,838,347,805,641,1408,-636,-56,-251,-190,4004,-827,276,-1722,-389,142,-354,-478,-7812,27,111,839,-364,470,-845,42,488,4791,31,-680,-426,-272,247,609,-1151,2441,311,-317,841,-1209,2006,-892,248,373,115,-5,-918,1065,34,-620,-255,237,167,-441,-388,6032,-165,247,-246,132,8,1839,933,914,-92,778,-306,-923,373,-870,-821,-463,724,532,-296,-1428,-125,567,323,1740,38,372,667,236,-816,-151,-277,-99,573,505,310,383,321,-930,5307,-5191,188,-357,644,390,-152,-823,-377,-454,427,1101,-118,1602,581,308,-537,-1033,-745,-2111,957,849,-2217,-85,1559,-585,-372,3596,246,3146,-500,371,-265,930,-4350,417,50,711,-316,-906,-309,-49,942,-697,-501,-5820,-324,531,-300,253,278,-1435,-123,-330,-314,2240,-442,-629,-118,-5492,2149,-590,1305,115,-66,-476,702,187,-149,-149,1027,-932,98,-638,513,94,857,-150,-1380,-346,-74,-3100,-667,-691,-229,46,-284,-1349,1160,189,-238,-455,56,-179,103,-102,-688,367,1398,689,515,440,380,3884,-247,-554,54,636,-426,-1015,1463,-161,210,-89,-59,361,303,-335,-308,1347,1675,-443,642,1552,-1228,34,311,580,536,-1334,152,158,148,-1750,508,-112,-141,-950,-139,270,386,-92,-647,294,377,-441,-1021,161,-228,187,-1505,6596,-201,1964,80,-245,573,562,-3590,2474,315,50,388,-245,107,474,-777,309,335,515,348,193,812,1230,62,286,580,-190,-246,1001,606,767,1861,-2134,-124,-4537,790,222,16,217,-574,375,125,43,627,-183,-191,150,-852,201,-218,124,185,-12,1375,-48,-112,252,857,43,877,1282,371,-689,655,305,2469,918,-166,-50,-3027,337,-358,539,-155,13,209,-418,647,-415,2766,-325,-19,-3512,112,-843,-264,-39,-677,376,-1974,285,-361,664,478,1410,349,549,182,839,-25,2746,3381,-473,488,-488,-370,319,549,947,-215,-3421,-23,236,-183,-830,414,-505,-404,-867,5092,284,496,106,-257,-354,-291,360,333,-34,1221,-57,236,-293,369,-220,-358,-494,491,574,-151,372,487,600,-59,553,-329,-91,-728,803,-333,-497,-52,-447,-646,757,-514,704,490,1010,98,562,13,497,-726,-241,-309,-710,39,-153,-45,-598,824,667,190,-551,351,328,212,385,208,477,76,-3312,101,-363,250,130,-161,1851,183,-6685,353,181,-704,2816,575,2492,226,397,220,406,-2808,-971,16,260,492,62,455,196,-395,-548,-603,-1400,291,1260,503,331,-1869,-6666,-423,593,753,-81,-45,-414,-338,518,1157,-249,-399,-241,-493,1653,136,103,-1025,-154,424,142,545,264,411,1115,-632,-110,-94,2057,-223,-78,-959},
    {211,-2863,-347,-2499,127,1191,-401,-613,-1091,617,475,934,542,4101,-84,-234,714,-867,882,640,701,238,1417,140,368,2807,392,-82,126,46,-844,-501,3398,-258,252,3738,-199,-85,293,-602,149,-757,-126,81,-6005,310,1081,446,-526,-167,193,-208,857,336,-1616,3751,-1220,-674,-106,45,828,708,116,482,2638,-408,280,-425,434,1155,-843,-828,-4299,-20,-423,-181,-2767,232,2366,921,-18,720,-2051,-219,-1243,156,-614,-464,-379,458,68,-510,778,-314,347,277,646,71,4003,1923,164,-5330,-142,-155,-103,378,724,-48,2233,346,-189,2088,-2517,-294,747,-44,-1218,-4873,-619,-447,-464,894,288,198,217,-548,414,-298,-624,-595,-1563,-1135,295,-475,-1889,973,-766,-139,-1733,966,-302,-1238,1156,-638,693,-4235,-83,423,656,217,-891,-438,167,438,25,-547,-233,356,944,-586,23,291,-367,-273,-593,-1253,-204,187,-2089,-56,-1548,-890,-873,1215,71,-3532,-76,1412,-327,-310,-277,473,-893,18,-1980,609,-350,102,403,1787,-704,-159,-625,-131,-1854,-861,-1337,-235,-1110,1422,360,-265,3646,929,-271,-111,-379,198,-1756,652,701,639,-643,88,-216,747,-534,103,137,301,-871,1080,-366,142,-171,15,352,444,268,-288,-484,974,-132,14,1635,-1007,-110,399,192,346,-267,137,-958,-501,-2367,-3,-52,136,-223,-20,-7534,1726,926,-650,-585,524,-49,-629,-184,-136,96,-1329,-385,-249,-547,-603,-681,534,617,163,-1512,-89,-883,209,-679,610,-190,-213,867,439,336,235,433,-1011,-1836,38,13,-108,-837,-363,734,-719,1408,1533,-742,-256,-1094,-3076,-633,386,263,-1110,442,475,4,1330,390,53,247,-1989,560,-70,240,-6,-1121,995,-830,-68,180,784,-6965,1766,1119,-272,-583,2295,5,280,1681,736,259,2168,323,-2189,-13,-322,-41,1289,8503,785,5504,2625,-80,-24,-502,-157,-852,932,1240,-687,304,-2378,-368,-698,4290,-85,2119,314,272,-28,18,650,178,-8,-257,782,-81,-4016,214,726,1070,-554,-4623,393,2486,259,-1310,-2048,-326,-259,-1213,-2425,-3574,676,-2341,-238,-804,166,-484,35,-292,1297,-5,75,-418,281,-255,-150,-530,2503,-498,797,437,222,930,133,-34,-304,-530,-302,-323,-158,-198,539,-266,-555,551,-1035,464,297,1195,-115,519,269,159,416,135,-807,-929,351,112,-169,-463,863,676,105,-1561,168,226,403,407,-405,572,296,-2982,251,-1215,323,1265,-72,1625,-79,-364,243,-118,-818,-387,474,-1189,181,445,22,531,271,-1567,-81,-201,514,-418,892,173,-694,-73,-958,-1410,27,806,884,1260,-2146,-3363,316,-96,687,-161,425,-587,-228,507,-677,-554,-575,860,-449,163,4157,622,-718,-34,-773,190,232,239,-216,3524,-430,-250,-214,-532,197,-40,-3201},
    {574,-570,-802,-325,60,-1839,-216,636,-435,1168,1096,1009,438,980,425,348,149,34,773,5872,713,756,-1190,-888,34,245,-45,-205,280,133,-389,-288,-1885,-1173,172,-260,-121,-220,158,-175,192,-1254,-408,233,-5909,187,854,157,134,39,854,-6338,1001,458,-356,378,-1444,-959,-1036,710,62,-340,743,-1190,-1384,289,-581,-535,-485,-64,-268,-251,1187,-224,91,-310,-2172,1313,1695,-364,141,-342,-143,-436,-388,1728,-6832,89,-514,-2994,-761,-357,-372,-103,490,957,1390,-289,1020,2073,235,796,229,44,151,596,564,660,240,48,-445,-418,2484,-399,297,4928,509,520,-732,-175,289,3743,-525,179,233,478,405,-452,-289,-1402,-1147,1194,126,-1831,113,745,-149,-135,156,-503,2079,-458,1124,-392,605,-4629,-689,418,570,-282,499,-406,207,582,1335,381,-5171,554,280,-1464,-2347,-88,-416,-212,-1113,728,-904,-5,-3219,-268,-3982,1036,-214,1066,81,1037,-851,218,97,438,326,456,-840,-59,70,1290,1833,101,470,1949,-535,-210,-1194,-496,2408,-524,-1443,-95,-1050,547,-43,-184,457,348,-218,460,348,833,-1785,294,466,143,588,22,106,1425,-446,205,352,159,-735,439,-426,167,-83,-88,565,176,517,375,-19,2462,-361,517,1629,-387,0,843,99,889,110,-31,1750,597,-1728,256,-71,115,-548,-167,347,134,-8708,-752,131,769,-548,-1636,80,18,-45,-989,-124,-925,2399,186,-534,314,733,-3920,-2175,118,3,-107,-619,-65,133,-692,-3358,617,362,200,123,-617,-1456,-25,-8,-1530,-378,-177,531,835,-310,817,-1938,198,-5029,723,230,-36,307,-2666,140,-148,244,-4484,342,18,198,-1844,-721,122,385,-2823,-799,995,740,152,342,967,-238,-758,504,156,-733,443,156,627,734,73,152,-3747,741,-739,309,-289,785,436,2747,682,-827,1439,98,182,106,-87,-769,-158,-306,130,30,1119,-40,-622,-1744,806,1693,323,-152,-9,1101,621,-2563,1456,-302,533,1394,3658,23,872,1111,-384,-1441,25,2779,-107,360,-3850,-516,-231,-551,4020,4337,609,611,-443,-936,114,1311,197,540,-2910,-112,-47,-438,557,-119,-275,-521,1413,49,-201,270,322,-116,-263,-168,-264,197,2,418,-234,4,275,-189,108,1062,388,218,602,358,124,437,95,-586,-563,-232,-762,-457,478,79,92,-320,467,691,380,965,377,336,568,455,-348,377,311,-2852,443,-1576,-150,2671,-153,2273,-173,1242,244,-46,-758,-246,1229,-603,240,371,97,638,-847,-935,-9,833,345,-371,605,-375,-390,-345,-187,-1367,-882,-42,736,244,-2840,-74,-152,-73,751,172,711,-55,-706,329,504,-245,-134,-1110,-612,-441,-199,151,-1129,-3725,-333,209,542,-22,102,909,-764,-148,-138,697,49,-426,-1693},
    {1479,-599,-590,660,-6,604,-706,232,620,563,-337,4588,427,277,-55,-621,-22,53,924,183,649,517,1149,195,-292,608,-55,233,200,-449,-59,-339,510,-1103,244,-54,29,814,8,1427,1103,-931,-354,145,-4117,990,3369,-319,-148,-5389,1057,-375,853,39,-392,269,-1564,-1400,-673,-441,-66,292,5035,-723,1640,-398,92,-287,543,-322,-756,-2207,4535,-130,-1213,-198,-41,1413,2017,-158,74,710,-274,-494,382,351,-664,1077,118,-63,102,-439,45,-344,88,634,355,-177,609,963,-36,992,26,303,369,289,430,660,1071,83,-17,-556,-1257,90,427,-4251,-24,406,-164,-123,320,-233,-62,222,-260,1240,453,-387,23,-1354,-529,-437,493,-336,-5448,149,320,-13,-342,-272,546,-615,1751,-545,987,-4185,458,446,1400,-83,808,-340,-853,578,158,451,111,-377,534,-6201,-125,-563,-166,56,-2249,-2012,-253,-321,-24,-28,412,-88,-1045,1007,567,-267,-662,833,-46,59,-23,490,-682,241,-1733,126,-1264,138,878,-626,-449,-98,-1815,307,-4054,-672,17,189,-1091,-1086,-504,-320,-138,-233,-344,-122,5,663,-1727,-777,367,650,629,-48,41,-88,-480,30,245,94,-72,-175,144,216,145,-51,491,534,-1087,-239,-504,2312,-95,-196,1912,-833,301,489,141,924,-314,271,97,-264,-1031,-580,-35,2,-243,-104,63,320,53,-401,-292,397,-2393,1112,437,-721,40,-261,-42,-3669,-36,-296,383,442,770,-3149,1535,181,-71,48,-2899,244,27,-30,899,622,19,173,412,162,-2102,-129,244,225,-649,-812,348,207,-476,133,-973,-614,-891,566,-367,-14,636,-2489,-112,176,510,966,412,503,160,-1696,111,323,4915,1499,-173,106,-1261,20,522,669,-205,3220,338,-281,-519,582,365,454,887,-192,-222,-490,48,-358,-319,148,179,512,1301,-83,630,-2330,-298,4835,-85,-223,83,394,-99,-114,279,-554,57,-606,-685,788,927,-442,475,450,-315,493,-1316,304,74,596,969,-2750,-38,970,231,-709,-869,360,2992,694,-404,31,-531,-211,-91,-1279,-2712,144,327,-331,-614,212,-150,456,35,294,-135,206,-85,151,-171,362,-481,-1549,434,1429,171,190,144,188,-290,-96,223,-449,447,146,-200,-156,104,-60,458,-554,213,355,-367,84,366,97,479,-54,1347,-591,-184,414,-187,-192,-664,463,570,287,-2409,268,347,262,126,-384,279,211,-3028,25,-69,822,1805,238,1632,-292,-24,70,136,1734,-893,426,0,223,376,429,223,-65,-190,555,-5536,385,-111,655,19,-385,474,-286,-898,28,287,436,1257,2222,-86,351,-63,642,3372,1024,-79,221,188,-163,-72,-412,2957,-124,-870,399,188,-1500,98,131,452,1267,245,-365,226,-797,-105,85,-625,139,179,-1630},
    {538,-53,-320,1375,319,-598,-1422,197,4087,2219,23,-4689,467,-41,9,501,-1292,-576,-424,-23,570,648,1008,-643,-882,653,389,859,-470,-171,-61,-303,300,-1290,106,1426,134,433,-126,-316,-1066,-1053,-714,-138,-899,283,-369,-574,1032,1405,3088,-56,-133,-330,-170,180,-1004,-1197,-2029,2370,351,-168,297,-701,28,301,-506,-143,224,966,-884,2472,6084,342,268,-422,-654,2274,3024,-4955,488,-340,-625,-622,1351,204,-452,607,1336,-543,495,-6944,-657,-914,113,737,-2264,15,355,534,244,779,272,2695,-743,37,613,-4160,2474,561,-199,52,201,-64,-920,4418,298,276,-153,135,190,2099,-273,419,-321,347,401,-676,-32,-1205,-2017,-407,208,-693,-511,509,-427,-3837,-598,-575,-1109,1299,702,-409,111,-208,380,1238,1242,-658,-1346,-419,30,540,-377,356,-108,453,4118,-1164,528,-947,270,329,-839,1680,-313,-3945,616,-541,861,1744,-290,809,-332,975,-1649,698,-123,237,289,1227,-766,659,-2233,-21,-664,409,-4517,406,-646,136,-746,-56,-761,-783,-252,150,-857,2,-380,-190,-94,-884,85,-217,-391,808,59,-433,334,147,1958,59,-363,-174,-134,908,1313,-616,-384,-445,-616,445,-646,-112,385,662,407,157,-281,2555,-1158,-154,-42,-759,161,-27,468,932,46,-295,43,219,-2880,274,3912,-98,-383,-162,-7302,-41,913,309,656,371,-2619,-344,1090,-609,387,-384,-345,-160,250,-352,-44,372,604,-437,-1091,-2609,241,-41,-521,-776,445,19,337,607,-345,187,192,-76,-1485,4,190,361,-342,-442,-56,-125,-801,919,-2161,-1993,-416,688,-713,86,37,-2457,386,-716,2082,2415,1074,-2810,141,15,926,95,43,337,-212,1262,-2950,-87,262,277,-8,393,162,172,799,405,321,532,2025,-16,436,-240,670,-868,323,-704,59,578,994,15,723,-4455,-117,41,-732,-133,517,-1673,-80,-6626,65,-397,265,-383,-438,-463,1409,-1867,586,473,488,1956,-1497,-163,-566,518,-393,-364,132,818,-569,-1163,-705,173,-379,-871,-92,-848,-893,-1563,-481,1334,137,626,-2404,265,-390,162,27,1036,-1996,55,137,447,-22,132,142,80,-425,2174,-353,394,-271,-418,2665,-103,240,-56,283,97,-164,-461,-3223,-118,-65,625,58,-191,186,1989,583,224,264,233,-212,-751,-135,-570,-333,214,2,-283,-980,125,543,107,4345,319,505,1302,33,-130,-1083,107,-2441,-265,288,-1986,-199,-290,1666,-44,-716,309,713,-682,-41,1507,299,43,-634,662,1179,-289,-425,6,-2934,331,208,-42,-206,103,210,47,-440,1723,581,-185,592,1130,115,-304,580,585,382,-205,-7247,-178,76,-174,-535,814,-237,-595,-1521,232,-77,-1864,534,-851,-4519,1419,478,-1038,180,-988,241,-22,340,-83,149,-2417},
    {507,-384,-269,236,-380,-416,562,563,1809,429,-3005,205,286,-74,142,1045,1183,1304,-444,-657,564,844,1194,130,-19,-215,330,-1299,34,-526,-148,-115,-1614,-1088,247,1016,47,541,-246,-8671,630,-594,-348,473,-1003,-1222,290,199,97,-3232,1208,380,-3037,-444,-401,532,458,-1108,-1468,-346,-710,354,-271,182,-481,-1707,-658,-876,-134,413,-378,-5737,67,3345,-1986,-526,1219,-1037,459,1013,566,399,-256,-580,-104,230,-878,1266,-571,-1214,423,-618,-298,-928,880,555,283,1731,847,241,124,-47,144,872,-1807,106,284,400,743,-431,-382,-276,520,552,-966,267,-24,-186,164,100,11,1066,-100,-38,-492,1589,523,-333,289,-433,-265,-841,150,-434,-249,505,-17,-6523,-481,-462,-659,-3693,223,912,516,-4560,373,258,687,-431,243,-626,-265,537,-154,410,-1589,-506,1910,-192,25,2869,602,-151,-630,1208,-256,-1429,196,139,834,2497,-365,905,223,759,-2328,1218,250,116,-1353,35,-783,225,-2685,-5149,-1046,216,1473,1356,-49,362,-998,284,-1299,-935,-129,9,-692,1463,1083,-292,-1219,716,-193,-1470,-125,371,361,-37,542,26,1766,-688,-313,-545,-51,984,1120,-348,369,-968,-365,519,321,581,198,507,-157,-119,-106,1348,268,-877,-792,-1028,358,-89,389,816,20,555,381,-628,-1172,-152,241,-239,84,-287,3892,481,852,23,1850,356,-2179,456,-105,-1011,-3687,165,-337,475,-58,-137,500,419,499,335,3814,213,86,720,-656,-414,473,40,404,656,-453,389,347,98,-1536,223,909,-126,-271,-815,-989,-546,-470,1123,-1629,-277,-1390,858,-1080,255,148,-900,417,-187,426,1308,-625,-6930,285,-74,251,278,21,-4132,-350,892,-1265,250,412,436,-37,1938,-98,2837,-204,416,63,654,385,-21,307,-379,-531,284,-66,-888,27,700,-29,350,167,-491,-533,-286,-89,1188,-353,1545,4,-672,511,-244,57,-502,-1269,-478,1449,-236,434,402,-1124,817,-740,635,-113,-125,-190,-380,0,3,-438,-1366,-916,36,-3950,792,312,3693,-546,303,188,-391,-1836,679,376,-663,-399,34,-120,-32,-1784,-654,-49,433,-5233,61,-257,105,-206,-3952,-276,1505,194,449,-5909,-405,41,-388,-3832,106,-874,-199,-429,2890,176,531,204,-459,14,818,-932,107,347,216,2096,1546,270,-805,-1026,-569,-165,443,-72,347,607,-2,-4210,744,1280,-427,961,-278,-750,488,-1913,-766,440,-76,-207,0,1605,-380,-33,775,668,-450,-7,-1325,-562,-96,353,33,884,-285,-1021,-946,1486,360,336,-516,-130,-582,-744,-1797,-362,-176,-4379,-1740,480,-2295,-182,360,720,724,-795,43,-724,-989,449,-263,-224,-249,-3204,-204,-113,-60,-515,911,-5002,160,385,420,-100,1134,-253,-931,-224,-5122,-368,228,52,265},
    {-171,-238,23,-399,181,-133,-27,132,2202,368,315,115,424,48,359,-1103,671,1215,-410,418,653,512,-299,-90,570,289,-504,-582,460,578,-180,-539,126,-1225,201,959,-137,54,311,-8971,664,-323,-201,291,1177,248,-828,-519,-342,-90,4638,335,-496,207,-3052,601,817,-770,-768,-532,-4346,-299,-359,100,-539,-31,-587,-375,-94,356,-549,270,504,2909,64,-349,252,-31,3217,684,40,-433,-502,-544,216,1405,-1052,195,1915,-386,75,-987,-51,-620,26,1722,230,-48,185,313,-36,232,-1189,4239,-3155,185,443,-1711,898,551,-444,-378,655,147,583,361,242,175,-894,-318,9,52,-378,383,108,491,451,14,-456,-690,-1040,496,975,-542,-71,525,-694,-5468,-51,234,-1031,-293,-828,-791,-106,2420,216,-122,968,-693,1122,-152,200,311,174,-101,-771,42,3814,-381,-42,1495,534,56,944,-213,-103,-4283,412,-743,1253,353,-88,863,155,-102,1301,-119,1259,842,-208,597,-732,44,-1504,1947,-702,424,-2654,1580,-481,425,696,1370,2348,-952,-6,-100,-585,2117,210,-39,139,-362,60,99,-55,172,354,3085,397,226,1593,1204,-242,478,445,-595,536,-724,114,965,1244,480,365,-509,97,774,-209,-320,-396,898,-246,-1069,-419,-776,2589,-195,12,600,-60,-475,252,623,243,201,-346,-85,-507,-396,-345,-79,368,31,-2376,448,672,565,943,24,170,31,-432,-95,248,240,-274,334,336,-69,1458,-1582,-228,-184,-718,-289,201,28,770,376,707,292,312,19,-1715,247,834,278,-338,-202,-34,-354,790,1375,-919,753,268,818,-581,505,191,-1274,566,1793,-5980,506,-3598,-4222,223,-15,212,113,461,-3461,324,-4572,-659,-384,67,196,830,297,-112,558,-1151,260,237,-3016,2114,200,323,-446,166,-412,324,-1805,-243,585,220,-633,-210,-474,-363,-459,126,146,1898,104,202,-1141,-182,-534,-20,-21,-592,-1709,1247,598,479,231,-279,236,412,94,-61,-791,-253,-268,-134,613,655,-1431,-846,-242,-3255,1045,-273,-5444,-1016,267,-733,240,-38,338,283,309,-1074,-50,190,904,-679,-82,-430,-150,526,73,621,-307,-412,1028,-363,469,-256,537,832,-123,-246,-189,156,775,164,-119,-2254,-216,-268,1342,87,-215,-35,-68,-479,336,1287,128,538,1032,-58,-997,-538,650,-455,2018,-360,244,74,-44,-1232,1701,579,2181,586,-132,-693,591,-2770,290,643,-1500,-405,-206,988,613,382,810,698,-177,-190,1585,-102,22,882,724,643,-633,-582,277,1049,345,-7576,-192,-483,-273,-425,-3647,-441,-91,266,5224,199,-653,-479,-170,-96,643,2475,95,-162,-1212,641,442,-417,829,31,203,-654,93,563,-4179,341,-668,2897,961,161,842,-1010,-563,-350,-925,-209,144,-15,-227},
    {-152,-540,-18,110,936,295,-408,-622,2015,384,-1763,-2,342,202,-675,197,-68,-972,-217,329,624,-38,1643,22,539,1101,36,-885,2067,-138,-828,-513,224,-345,155,854,-134,124,-730,-946,38,-1301,-615,411,-520,449,296,699,768,143,1198,-325,1045,3309,1531,933,-411,-683,-496,-379,-995,-222,-144,609,-402,357,-402,-324,-255,194,-216,-31,256,2527,-868,-141,172,780,626,748,-4831,4,-566,-472,-82,250,-1515,-29,-315,-684,-4736,1067,-117,-219,472,70,482,-135,544,217,344,-345,217,-6326,-1138,-887,591,-1638,-161,131,-1590,-599,331,257,-144,-34,-215,-1322,-386,-924,4,827,-23,-507,261,996,427,-211,-176,-472,-1035,-1129,-934,-546,-1193,129,274,649,-192,-7052,-329,-222,137,448,-100,-1764,69,-465,641,242,-431,-460,396,401,8,-114,-503,-251,1737,-588,-327,366,689,350,-343,252,-52,-336,18,4262,-590,3108,-497,917,-5563,488,-1558,-497,414,176,-366,170,-689,5,-1537,206,-443,263,-570,-970,-90,-1124,189,123,-2679,-1369,-195,-200,-846,177,-70,-84,-700,869,676,-526,541,-39,512,474,499,395,-79,-388,-216,144,91,-801,-196,-657,446,527,-854,375,68,921,-364,563,0,-372,772,3977,250,1040,-276,-1119,-116,44,316,472,71,-8282,276,244,198,-382,70,-1017,75,-116,845,676,669,-254,529,1111,-1441,-465,-2494,0,-203,-1388,-142,284,-973,-83,178,575,436,288,-1340,339,308,-7491,-115,48,532,461,393,407,-5866,319,-93,75,-1501,398,614,-182,-201,-1504,-834,-128,-799,1484,-1617,119,-15,869,-3229,448,302,-97,451,-35,687,628,-7874,297,388,25,173,227,390,520,449,916,-320,-131,-8020,743,-46,1954,-151,1340,-778,414,291,-4050,193,108,-389,-85,719,242,236,115,-271,529,355,494,-220,-648,-743,-134,34,-124,-380,-374,-245,86,304,62,-486,-460,-343,-261,603,272,204,44,207,1238,-919,490,125,-283,4,-229,36,119,500,-695,90,-201,-3221,-639,-6,-542,-261,161,-610,854,-1434,408,47,-750,-1017,-141,305,425,-849,-396,175,-63,474,-25,924,-534,-173,-686,3361,521,642,212,-2100,-531,-76,99,-701,71,59,-351,-2471,344,-35,2759,755,-259,-109,-15,-591,-357,1249,-3,-405,384,-249,341,-73,525,-538,108,-237,455,352,-128,406,2324,478,-378,75,-83,-2448,303,-3030,213,253,208,373,-310,775,-4632,-202,637,-150,480,205,32,298,-245,623,192,328,326,-1769,413,877,440,367,-157,-115,-85,-333,1812,-278,42,318,-726,872,-2058,-545,156,-523,594,202,394,-542,-2573,364,-581,-333,229,-4549,-172,-43,-58,-887,3574,209,1,514,1355,537,2278,-766,-552,-469,-687,-50,-206,81,-720},
    {202,-117,-218,-639,-67,-4,-89,-50,-871,1050,-85,595,437,-176,9,-13,155,74,1028,102,431,342,-77,14,593,-2996,45,-121,0,28,-566,-299,195,-332,9,-361,-130,590,127,391,-33,-262,-112,-3,1824,68,4,204,-39,228,613,-849,28,13,-385,580,-679,-703,78,460,14,-92,-172,294,421,28,-351,-129,355,380,-167,-148,41,-201,26,8,239,-45,1779,-626,678,212,753,-233,-851,172,-292,-135,-266,726,359,-47,-533,-163,151,242,1329,-69,424,589,68,70,-87,-64,-138,308,474,183,95,249,-144,6409,-6054,-38,275,583,273,-2,-113,-292,-188,55,-1981,-166,1171,-173,288,-375,-128,-447,-1107,-97,32,-574,67,1580,-152,-132,3538,64,312,136,233,-395,1103,-113,59,278,536,-78,-41,-40,774,284,-290,97,169,13,499,-233,443,250,-245,-182,129,298,2864,97,-394,133,-973,53,-184,939,239,491,-198,140,152,-88,-176,281,-946,37,-1489,184,-87,77,356,-287,-144,-119,-206,-122,251,-854,376,-107,-853,-363,14,-242,223,660,-78,-9,-107,44,53,80,235,316,-8,344,3226,25,-280,192,-139,-138,-1427,800,-381,241,607,13,331,269,76,90,1065,567,-59,9,1206,-713,88,75,202,157,1016,103,302,-141,-122,374,-38,-63,-1320,-319,924,572,544,-226,35,435,-671,-664,99,-354,49,188,-166,-363,409,15,-272,236,462,45,1178,180,79,-240,243,145,-112,-371,610,206,356,411,75,-1344,-1413,0,-23,-15,189,-104,552,746,-353,1863,-350,-4,-365,754,41,-63,719,-634,-7,130,-42,344,440,-228,265,-1858,187,9,326,295,190,954,144,-229,273,818,66,1205,1079,461,80,894,253,127,615,94,58,-3531,195,-388,179,-12,-253,1901,-182,211,56,1157,-112,88,4655,-12,-251,-301,-22,-467,281,-655,-131,-272,-597,43,48,119,343,798,1327,23,332,150,-310,389,129,-355,188,556,862,-201,-809,-87,450,42,-4418,90,-332,-189,961,-3,-96,128,49,-93,-390,-173,-67,233,156,2391,-63,-23,3,343,-47,-157,-179,-226,-56,498,341,29,330,76,113,-283,-72,73,125,170,-149,-69,-309,147,-29,-337,568,208,-35,36,484,101,-95,110,159,15,-386,-192,-132,-8,-635,398,510,281,257,134,263,691,250,84,350,157,-3267,-149,856,445,129,-244,1298,88,629,942,11,-92,356,189,-1416,233,-80,191,264,-2014,-372,179,75,503,301,505,132,-174,-108,-30,-941,-45,294,44,272,-526,517,-101,125,621,-61,1036,-177,-102,474,87,-37,-461,621,-190,39,-83,160,-575,167,334,0,299,343,-135,90,-402,-112,60,3087,-82,-46,-730},
    {579,-231,-324,-2848,-66,765,-261,-274,-1061,1222,-245,-2712,437,-157,-66,-342,-127,-285,937,287,543,197,1399,20,291,2471,145,494,153,138,-377,-354,91,-405,138,-252,-56,607,639,1285,45,-930,-216,368,-5589,318,443,89,-44,-69,82,-508,802,-15,-151,1467,-1108,-643,89,450,157,459,232,130,649,224,474,-211,908,193,-391,-94,183,-49,-430,-34,-371,572,1892,-150,51,288,-6470,-146,-3396,427,-279,-228,-231,476,297,-30,837,-184,186,249,303,-20,748,2329,205,205,-147,-168,-118,391,531,129,234,293,-346,2462,-19,67,163,248,164,-290,-78,-309,-106,93,512,109,-4701,-168,312,-286,-359,-338,-570,144,209,-1671,20,915,-44,-230,-1426,371,225,-62,1090,-372,650,51,83,215,345,-204,-91,-69,-347,674,-147,105,758,358,474,-522,304,336,-266,-329,-34,300,213,403,1223,20,-1699,140,-173,1003,177,-812,-216,183,307,-37,-373,421,-970,52,-1624,260,-174,55,347,403,-399,-90,237,-91,269,-781,392,-91,-919,1015,292,-226,-63,-2632,87,102,-18,258,-1793,184,154,382,-189,321,-257,669,-391,85,-306,161,-82,1038,-294,137,232,-61,352,289,-294,-49,-4199,470,-27,-107,1357,-438,-67,508,150,289,484,131,209,-98,-377,186,135,277,-480,177,863,1173,3660,-227,510,482,-592,-361,90,-379,-14,-25,963,-459,-437,-29,-90,387,484,127,28,118,106,-43,-825,368,-342,-262,411,262,183,468,31,-399,-1322,37,42,-308,29,-231,636,1059,-506,751,-1344,-64,-177,720,-142,-1,250,-1097,-182,76,258,540,432,-217,489,-2019,251,170,304,55,319,302,315,-37,182,605,53,599,795,466,-13,714,210,241,625,457,80,2572,597,-1430,118,-29,-110,2881,-6693,404,3805,404,-233,38,-383,-121,132,-103,105,-550,317,-1749,314,-335,-506,-83,-338,360,390,800,112,-29,111,38,-492,399,33,-668,169,533,-1944,-254,-750,6,3825,67,3401,518,-140,-134,1132,-1187,-329,168,12,-153,-562,68,-344,220,278,2025,-208,-20,-390,400,-180,-418,-462,-206,165,977,277,179,190,-41,-146,-305,-3,-26,-26,26,286,-127,-268,-467,112,-401,957,192,480,55,560,-14,-72,-88,-29,-922,-256,26,-128,4,-455,404,600,185,-295,143,378,213,305,-204,418,226,-996,-70,-203,303,293,-431,1440,116,-141,660,-52,-355,466,719,-1163,174,74,325,259,647,94,160,70,353,85,152,-81,-195,-100,28,-1013,-1,163,65,410,-463,-541,10,-11,633,-47,630,-19,226,399,14,-273,-115,583,-199,215,46,60,-502,140,-574,97,447,488,-177,42,-524,-135,62,2896,24,-34,-2285},
    {635,-424,-517,653,62,-1495,-535,-538,-3603,1937,-151,623,357,43,-252,-116,198,66,827,197,470,445,-957,-381,308,151,187,-228,-387,133,-434,-323,217,-1142,150,-56,-44,658,620,1692,269,-340,-301,-62,902,198,-595,388,-6,735,389,-261,662,113,-124,851,-1379,-578,-388,700,20,36,176,104,284,-346,-554,-450,372,32,-343,-462,101,103,-201,3,489,870,1844,-300,599,778,501,-233,-442,247,-352,-225,-256,-732,637,-78,-40,-93,253,223,589,-42,474,2529,237,151,-52,-77,123,488,535,-71,-797,129,-460,-539,849,-215,259,291,214,216,2691,-297,-20,704,-1025,102,1001,355,339,-253,-516,-1398,-904,146,14,-523,317,248,-160,-34,382,-331,115,-82,-144,-394,647,38,-61,358,256,88,-279,-136,1993,630,4099,108,657,106,459,-1845,34,200,-120,-199,-62,182,135,-9,-352,165,489,-424,38,803,395,701,54,-9,163,-81,-400,399,-893,-45,-1421,587,-204,136,574,1480,-486,-149,-777,194,644,-623,226,64,-810,328,-98,-229,-127,346,-21,259,120,607,-1789,22,-75,180,50,17,-50,139,-249,184,-16,29,-61,121,-378,231,211,-98,415,303,3455,-37,1080,579,-330,85,1059,-642,24,-1952,133,600,193,96,232,54,-2743,316,393,151,-2950,153,487,320,-9828,75,-49,399,-616,-497,35,-197,331,26,349,-1885,2398,-87,-134,295,596,49,-1092,55,110,-7,717,138,45,-175,438,408,84,539,384,-185,-1174,27,46,-613,86,-102,470,-202,-565,2312,-483,-163,-315,654,113,144,530,-2157,46,213,247,848,512,122,343,-1678,24,-27,107,-121,176,230,-254,-226,-43,552,100,1420,360,236,-36,707,178,463,861,-182,63,-5799,217,-252,131,-138,-105,1420,2506,386,-3261,689,101,-1156,-123,48,-192,-369,51,-255,-157,-284,-55,-336,-696,89,438,335,128,636,-243,3,-3009,369,2,464,269,-655,127,467,742,-349,-828,-240,2859,359,-193,356,-657,-361,234,1561,-1357,102,8,-5,-827,-24,-208,299,404,-1822,55,7,18,391,-154,84,-486,656,222,642,198,209,528,135,430,-264,-252,-291,31,152,14,193,-278,302,-54,-247,263,219,104,109,429,109,-151,659,606,-223,-219,-2532,-111,-134,-273,414,609,147,512,181,308,301,287,14,365,225,-2705,-26,-2591,-282,849,-301,973,-55,2508,616,75,494,-46,834,-324,199,398,298,81,-279,-236,-648,18,411,85,180,-373,-380,-153,-176,-1045,-5,19,-80,726,-559,747,90,-15,462,381,1075,-94,105,331,184,125,-57,586,-115,-418,-14,204,-754,136,283,335,207,274,-180,109,-753,-150,83,-224,41,-318,-1967},
    {590,-497,-242,550,-54,487,-214,-159,378,1691,-405,351,346,-42,-142,-2094,265,70,447,215,529,402,431,-3723,427,255,117,7,211,-9,-306,-225,446,-1208,162,73,355,641,398,1838,736,-1077,-268,171,720,232,4639,66,317,-5043,1052,-356,-112,82,-266,258,-35,-657,-212,1862,-69,173,3677,-106,231,229,-448,-22,429,287,-711,9,-621,2,-198,-124,525,2419,1233,-10,149,356,-291,-262,5,311,-271,671,271,221,554,-32,-103,-94,195,140,449,-246,105,860,130,335,-125,-115,232,247,395,-155,4712,326,-1321,132,214,-38,555,9,241,-356,41,-209,223,536,-49,446,-44,672,330,-274,-574,-2359,-635,301,30,-706,-919,82,152,186,-243,-294,244,-403,384,-268,658,-256,-57,159,350,-313,261,-242,-104,470,-391,320,455,-263,478,-2879,125,76,-118,-65,783,1643,-115,160,314,92,313,-156,-394,629,330,-186,-10,5,99,-7,-154,359,-825,-64,-2136,356,-511,23,2236,635,-584,-61,78,706,698,-638,122,-25,-800,40,198,-212,-292,-186,195,159,1,95,-1762,-150,-184,182,369,12,102,240,-380,173,21,154,52,-178,-403,141,367,74,401,1362,-468,-248,-101,710,-284,-307,1083,-448,-159,285,98,689,-272,153,227,-83,-326,-2053,197,268,-444,13,983,2108,2807,-120,798,328,-1825,-321,297,-308,3,189,82,-249,176,-314,320,202,567,76,1702,581,83,-230,-2219,142,-262,-287,353,340,-223,435,222,-31,-1212,72,195,81,-82,-102,188,12,-459,2147,-1078,-492,-476,580,-78,143,508,-3053,-165,14,114,690,560,16,294,-1714,133,200,428,-157,97,105,1330,-132,-124,346,-128,696,-47,-99,-311,942,284,646,548,14,-121,-363,579,-385,-214,136,-52,532,1297,227,478,25,-187,916,160,-323,165,-45,294,-239,336,-304,172,-286,-544,260,279,112,235,545,376,87,4495,252,-106,559,713,-721,276,292,17,-335,-423,49,2373,-211,-305,490,-262,-78,100,-978,293,58,410,29,-756,361,-265,354,26,110,-77,11,-397,295,-121,88,-672,-217,274,596,222,134,-64,130,-147,-262,101,44,90,13,34,-69,142,620,292,-232,203,11,115,157,328,88,41,296,822,-674,-37,-226,1,-22,-432,433,560,195,-40,107,180,1040,315,-130,6,371,-1299,102,-335,247,-83,-99,1101,104,144,616,407,3955,139,1840,43,121,209,311,-5,-172,-329,-176,3374,299,360,198,112,-129,-216,-82,-471,103,467,-351,425,-483,462,214,-417,570,156,388,165,-220,243,-287,121,-91,333,-502,-32,527,118,-560,-411,-329,229,682,372,-251,258,-971,-138,160,-150,124,68,-194},
    {242,-284,-497,448,223,-224,-244,455,1525,270,-320,313,348,-180,-128,1129,225,128,-111,-138,523,737,-242,138,449,219,132,156,176,-116,-269,-245,363,-1254,146,33,264,487,651,1059,-2116,-678,9,279,-3719,234,-1788,104,732,1085,959,602,23,76,-29,626,-468,-742,-543,1409,-419,-39,409,132,50,44,-111,2171,-421,202,-928,301,424,7,-77,-146,815,1336,659,283,340,1185,-185,-536,9,82,-186,380,1408,76,672,-71,-4,-42,337,-30,241,-291,225,-287,206,208,-174,49,76,-573,437,-6398,-501,477,-413,28,118,-131,-1038,345,93,297,-142,-146,221,-34,27,236,-476,188,483,-269,-569,-1680,-670,-505,-79,-379,-919,455,-280,-25,-214,-70,109,1659,285,-373,132,-280,-60,565,194,-44,69,-216,502,393,-489,370,531,77,699,-1139,281,-419,133,-152,695,523,8,-676,226,114,778,-538,-392,650,879,-13,-413,-535,240,-2,-1400,17,-843,344,-1945,459,-931,111,-5801,1644,-810,-97,-484,-355,642,-500,22,-44,-764,34,-31,-239,-544,202,410,53,-198,524,-68,-80,196,341,217,-367,119,-179,-1040,264,644,-116,-91,-1856,139,650,217,-252,320,562,148,-50,-20,966,3428,-205,436,-651,119,100,197,772,-6,-368,286,158,-3086,241,6352,147,-1660,-18,-209,305,1084,137,-216,335,-2346,-216,388,-223,-67,228,-169,-214,609,-194,-140,377,456,69,-4277,-293,277,-12,84,126,-240,218,427,372,-459,383,181,-144,-1265,228,195,-273,73,342,97,-216,-570,2351,-1056,-3515,-453,541,24,109,516,-1507,559,52,593,862,170,-501,249,-74,-103,147,-22,411,6,1,-8715,-141,78,206,874,1255,-61,-25,165,391,280,358,971,98,447,-591,347,-64,6,-268,-103,1414,708,36,561,-621,-207,-2181,-467,80,325,610,236,74,231,-348,65,-194,-654,545,402,-2342,340,437,388,4168,-1289,107,-73,345,-2433,-541,63,131,140,-1152,-561,-102,-109,-1086,107,307,-355,78,-47,103,37,93,-1849,-149,-609,-39,-230,800,-2897,124,65,-193,-431,206,-318,340,-538,665,-440,391,155,103,1063,147,-23,-179,-74,67,-264,33,-538,-213,-129,288,273,-150,248,19,-107,-9,462,207,256,683,-95,-327,-196,10,-55,-106,-115,434,427,179,1837,-45,1138,538,248,-175,-190,278,-2237,48,360,-151,2161,-334,1206,12,653,717,465,409,142,884,-46,25,266,561,1,-343,-234,-176,-371,368,256,-30,123,-102,-148,633,-403,-75,1598,282,691,-459,174,432,594,491,725,488,-8,-159,283,128,-94,-9,-406,-328,-186,-1,155,-64,109,68,223,18,434,-221,-399,-1700,-1,478,-374,141,114,88},
    {-433,-448,-106,333,292,-136,116,-206,575,188,-218,201,333,-62,-293,-2454,1017,246,-236,-174,450,96,-67,-133,540,33,-262,74,334,61,-225,-131,285,-1130,248,835,224,426,221,904,532,-820,417,31,-321,-177,-88,-39,211,-418,1260,482,-164,-97,-659,159,143,-520,-628,2082,-558,-232,138,339,-131,184,-642,-212,-183,140,-912,-2603,-62,259,-295,-206,240,74,609,271,321,236,-254,-603,-247,-217,184,115,1486,-606,254,-174,-94,-219,230,253,164,-106,435,104,262,147,-244,7,180,-536,404,4322,151,384,-1302,70,293,189,813,206,125,-229,344,72,105,-342,-4,60,-128,475,541,-447,-367,-583,-360,-159,-155,-280,-472,261,-260,766,-247,-63,-1282,3846,353,631,190,123,396,145,622,-378,247,-161,73,539,-557,236,270,-280,2415,-186,332,1573,357,-8,1445,594,-112,-5691,272,227,923,539,-274,675,1084,-95,541,-219,-68,356,-2317,211,-694,178,-1928,39,-759,337,1315,84,-295,32,-576,567,875,-725,-51,70,-645,690,327,-280,-14,238,260,-18,-76,208,155,-173,193,432,2293,-673,97,-161,5997,819,883,649,-43,-908,-16,57,267,318,321,814,-101,124,-204,668,17,-2184,362,-678,87,-4,217,681,-179,-242,208,-791,562,60,-432,205,-479,-58,-284,705,1522,135,1785,332,-1144,-109,-543,-119,-976,86,-38,-362,-413,-174,-204,399,393,235,3030,163,73,2367,-45,60,-127,229,216,446,613,387,75,93,-797,249,-1774,-138,135,299,127,-47,-627,2090,-919,-1395,-765,510,0,405,-5,-516,418,-486,3247,278,-351,1289,414,22,254,45,12,329,40,613,103,94,213,165,25,596,-139,36,-588,310,-23,309,171,78,463,-489,683,-7,14,129,-78,538,26,252,318,-899,-149,-163,18,6,1145,-474,236,-542,228,-164,85,-49,-709,-261,505,471,172,377,-694,169,-1187,547,-77,-161,72,-561,108,343,-159,-1912,245,49,40,1695,464,859,-275,610,52,-756,446,60,262,-322,-606,-70,-226,779,-990,239,-188,-110,-1318,157,120,123,-333,30,-312,355,267,289,-6160,39,17,-148,-2741,33,-190,-247,-348,2284,-114,407,568,-212,235,223,-264,450,353,154,-2,-125,28,-764,-682,-163,-46,-379,-114,314,285,81,73,274,475,626,397,-47,-213,217,-962,112,592,21,-184,-227,771,-985,124,611,-2027,-538,84,449,14,-27,46,668,42,-406,-675,1049,-122,350,658,-2,-4,-235,-84,-3928,-189,-184,-4485,-309,835,-674,385,297,-423,607,12,-76,-152,-516,506,-197,-282,188,53,-72,-1546,27,-276,411,-2279,-259,-120,257,240,377,-246,-1450,-75,818,-231,269,-12,107},
    {-176,-403,-71,148,468,-35,1393,128,1223,353,-113,-146,354,-252,464,84,60,-451,-323,-186,460,-1373,104,200,531,32,209,-174,698,-4,-350,-488,136,-1182,376,365,-105,534,272,364,540,-703,-350,285,-935,166,-228,-566,230,147,22,516,-513,410,-2764,-136,-453,-765,-766,-557,-723,-102,-163,782,-433,274,-410,-372,-72,107,-406,1119,-93,2864,-448,-52,710,-27,1047,525,617,173,-248,-395,-137,-274,-436,24,1527,-146,-331,240,-221,-173,30,-98,353,-205,232,120,30,176,-123,-473,662,-475,358,-1795,49,414,403,54,227,-80,706,264,-1,-91,-242,-139,314,94,3,-405,-250,-1453,503,-374,-461,-358,-451,-132,463,-114,-270,328,-161,201,-293,17,-1379,476,403,-740,-19,1372,42,215,363,-433,4,-37,215,198,-165,-112,-5701,3,2248,-359,-193,18,494,28,495,201,99,-546,151,-392,752,-106,-48,803,369,34,1053,-251,887,881,-1863,23,-809,142,-2126,1639,-645,73,72,1386,-437,491,32,-117,862,-698,-136,-210,-668,-345,1050,-249,-181,509,510,36,-1,8,216,236,173,368,-83,956,237,-20,-60,2236,462,141,-30,-286,1915,261,212,1602,231,385,-77,-290,77,892,222,7773,137,-927,2715,-36,378,594,131,-281,405,61,247,117,-494,104,-621,6,134,391,992,-181,-1245,240,512,360,-447,-455,256,350,-337,78,131,-460,-265,729,428,354,1190,-4893,-11,-1875,-639,72,-9,46,934,410,596,398,-113,-35,-1376,78,182,-103,-1276,334,157,-303,722,1505,-638,-139,-170,602,-1223,-1875,-228,-540,-211,-193,-7696,283,-1855,67,400,92,-116,106,143,423,160,668,-339,-178,222,367,1607,1275,-79,1019,2301,334,188,190,2,-72,219,-670,-314,117,119,186,-169,585,262,95,43,-411,-380,-209,213,321,-164,136,224,118,47,-276,0,-162,-635,1712,26,365,227,258,84,-309,247,374,79,27,168,-488,129,-282,-130,-1890,1240,-246,498,2070,257,-5210,-364,-2,-134,7,271,275,8,-198,-598,-88,-119,877,-549,15,661,144,92,262,-274,-282,-318,136,-455,388,321,413,1196,-132,236,68,-305,288,-214,-230,-6442,-436,20,849,-18,-179,48,135,-161,117,1671,155,26,274,5,-459,-99,70,185,2788,-320,398,254,69,-12,1624,1623,327,445,-228,-490,175,-931,269,422,-100,140,-306,811,737,297,724,579,-140,370,123,77,-85,272,657,-141,-315,3018,388,365,387,-6629,79,119,-163,-242,-68,11,-67,685,3402,273,-399,-270,305,-195,467,3100,768,-538,-605,406,28,-233,248,-18,-185,-507,-148,955,1501,0,-166,254,451,267,728,-1309,-530,-80,-19,-86,164,-157,86},
    {-108,-373,-212,253,211,28,-18,-49,323,266,73,78,358,-88,-785,92,-356,-256,-381,142,550,-892,-15,279,295,307,226,186,2353,-83,-288,-258,325,-376,255,929,-70,492,-153,397,68,-330,-165,129,-540,233,-195,219,309,283,-379,86,-118,2214,-390,-216,105,-627,-565,2174,-607,-163,-15,524,-151,78,-39,5,241,366,-263,-1423,-132,2753,-324,122,254,-141,1211,266,305,45,-177,-444,-220,-1475,-291,203,2449,-1090,-63,2565,-40,-119,389,354,195,-11,287,282,87,25,-149,-676,-906,-779,469,904,-311,335,-841,236,182,119,-87,249,279,-313,-377,-798,85,183,25,110,-416,397,570,-346,-231,-351,-493,-147,-556,-191,-316,345,-241,297,-92,143,535,460,162,821,105,-129,388,443,383,-312,-78,-201,237,337,-160,139,155,-73,1546,-374,555,277,518,-169,193,120,-7,-276,309,-2553,407,378,23,678,2207,-187,202,-213,100,320,-364,66,-655,-64,-1112,470,-309,21,224,-90,104,-849,-9,38,245,-1041,-127,-228,-860,477,218,-147,-233,336,422,44,-121,70,199,229,79,394,-28,381,-21,-77,-273,-840,631,-2442,45,399,-569,35,188,334,101,737,-117,-266,155,763,-66,-663,343,-610,53,-31,445,460,10,4386,443,189,137,-75,-452,-90,-476,68,55,710,1042,-153,119,265,11,-217,-695,118,-30,351,-168,-61,-128,-315,-280,262,334,487,-13,140,71,-7444,-122,172,-55,146,300,333,2804,344,25,20,-1097,496,401,8,246,12,244,-116,-619,1053,-1866,138,-459,527,889,613,247,-679,1015,230,1283,417,-3750,481,124,166,71,-119,211,162,135,-109,-31,16,178,589,20,357,-236,1190,-877,267,267,-22,317,-60,156,-673,236,99,71,71,-183,931,18,636,37,-167,-74,-94,113,-5,-200,-182,-50,660,68,-150,146,-494,-533,-279,216,40,259,206,81,63,-171,487,296,-8,52,-308,165,-278,-41,-980,310,51,2000,-16,83,391,-187,244,-179,62,549,141,37,-1090,-632,164,-61,481,107,170,21,0,-123,274,241,-48,-244,-196,-947,232,491,16,-42,-82,185,-332,-308,463,113,-371,-527,-56,-227,576,172,-39,560,51,-288,155,292,295,183,-141,-154,-112,60,-66,826,0,-509,358,146,175,194,2285,620,356,303,-216,-623,236,-927,151,401,176,-38,-518,544,-5755,273,361,298,-170,170,300,-8,-11,-70,328,-159,-126,-736,-441,-571,382,184,137,103,-102,-109,8,-30,-64,142,-412,1115,-405,-110,12,52,613,418,173,-278,-596,624,-49,-454,-49,315,-64,-134,46,-690,2062,104,-37,142,446,397,2968,-693,-605,85,633,-180,178,10,182},
    {-137,-127,-190,-36,-72,-340,-35,-189,-553,980,-98,251,422,-161,29,-28,-28,26,801,-18,354,220,-2,206,102,-266,104,51,66,58,-351,-89,166,-457,148,-261,-146,331,265,1100,22,-47,-53,-88,1089,18,-37,-7,-7,256,500,-597,229,67,-71,9,-450,-585,-41,255,41,-34,80,229,210,71,-358,-105,266,1352,206,-208,47,-22,-46,90,-5,148,1520,-19,365,130,1410,-242,-447,132,-112,139,-154,759,250,-50,-77,-92,133,89,1089,-45,270,97,138,-74,-100,-11,-33,334,417,72,120,420,63,3469,409,-69,214,514,270,-52,-48,-259,69,-56,-1285,-23,965,-102,177,-201,-13,-91,-412,97,-98,-1181,-148,2270,-16,-141,3606,13,165,-23,22,-336,1514,-317,-29,74,413,-124,-112,154,306,607,-210,-6,296,147,669,-25,317,249,-93,-143,171,86,1696,115,-187,265,-515,606,-33,841,80,95,-144,-253,123,-57,-44,74,-812,-104,-324,214,-380,101,331,192,-42,-125,57,-142,416,-768,75,-31,-704,-133,-61,-239,-8,1013,20,139,-237,51,-219,65,195,293,-57,236,-408,430,-222,210,-195,-135,-1992,349,-164,722,352,-61,249,264,56,-7,1929,373,11,-35,958,-256,-56,50,82,-52,267,125,309,-41,62,244,229,38,-444,-548,275,399,192,111,212,347,-384,-529,25,-378,13,184,74,-154,491,36,-173,63,359,56,259,19,160,-82,28,171,-50,-281,419,192,211,413,-20,-375,-1056,-11,-40,-279,299,-268,462,304,-370,432,-550,6,-199,526,47,-9,423,30,-147,61,-13,452,211,-243,236,-1676,59,43,253,14,2,313,258,-140,304,559,23,657,739,288,26,933,101,-127,326,-1980,189,-310,350,-638,135,-133,-107,1465,106,179,177,916,-292,-100,-1897,-83,0,-158,65,-409,135,-133,140,-111,-538,88,142,66,735,729,282,-112,-47,173,-47,115,118,-351,86,771,308,-186,-461,-42,368,-30,-1940,30,-328,-129,843,-146,-104,41,91,67,-153,-4,-101,522,92,-488,-61,-87,-60,220,-72,1525,-146,-183,-83,87,292,33,196,21,8,-188,41,92,-178,-40,-222,-88,-15,25,-57,-300,64,240,-105,87,428,93,-92,115,-23,-149,-22,-240,-137,-19,-340,384,407,211,213,67,185,6,200,3,223,5,-696,-179,370,287,90,-246,756,134,-717,755,9,-372,-49,393,-1462,233,25,372,258,-2669,-89,104,38,388,669,492,213,-32,-24,121,-437,20,22,77,176,-417,343,2,-130,553,253,923,-214,24,476,-39,2,-350,701,-318,83,-79,50,-922,184,-135,-198,303,240,-106,138,-135,-136,-51,1599,-99,-98,-244},
    {300,-137,-315,-3885,-16,878,84,-352,-489,1344,-264,96,388,79,-115,-239,-48,18,801,3,325,216,49,85,93,988,119,226,-121,119,-373,-143,120,-735,125,-176,-144,495,341,1387,79,-76,-132,114,689,57,-87,-44,0,-135,469,-440,369,66,-98,2623,-971,-671,-155,333,-41,147,150,251,197,169,-117,-125,459,310,24,-198,-91,-33,-218,28,31,217,885,25,282,86,-5742,-283,-185,134,-224,-39,-38,419,225,-138,565,-96,187,242,314,-153,429,2760,-12,-15,-103,-92,-63,325,408,-29,150,427,57,2829,295,-97,115,311,338,-90,10,-216,70,-15,4941,30,-5343,-428,208,-197,-167,-320,-445,145,-122,-642,-215,1239,60,-171,-1525,8,130,94,234,-321,286,-196,-78,221,456,-56,-128,118,2393,631,-541,51,453,8,640,-211,386,434,45,-166,162,259,266,86,1723,215,-79,117,11,681,102,1098,12,-23,336,-39,-225,167,-757,6,-32,234,-351,-57,410,129,-10,-147,441,-121,316,-727,268,-39,-660,216,191,-281,-380,-2746,137,87,57,329,-1576,16,201,161,-34,271,-374,103,-257,107,-230,30,380,151,-253,1628,65,-45,282,165,-638,23,-116,-76,225,-129,1059,-396,-34,155,155,45,3,281,247,-111,-223,358,57,97,-739,176,190,290,71,-26,182,414,-353,-358,112,-265,-2,138,662,-286,-5609,114,-131,65,350,5,711,107,136,-143,-331,258,-61,-44,347,169,209,368,62,1109,-1061,144,-42,-176,268,-245,542,-5089,-461,424,-400,112,-52,568,24,80,655,-42,-8,-22,81,406,310,-189,266,-1847,-374,-14,217,-107,547,290,167,-61,279,488,17,1030,198,462,118,803,103,17,458,-103,89,1765,137,-1922,136,129,-138,2667,-347,130,33,322,140,-135,325,-60,14,-69,-117,-299,158,-1723,25,-128,-540,73,-155,233,360,744,544,77,-7,238,-233,152,213,-528,126,731,368,-153,-426,-15,815,-19,-3479,102,-377,-15,637,-722,-80,41,80,115,-331,-144,-73,557,161,-173,-119,-108,54,249,-51,787,-318,-158,106,396,240,78,484,312,195,-199,103,-30,6,-59,-188,-99,-185,-49,4,-150,-564,330,163,92,550,105,8,169,64,-360,168,-84,-52,47,-231,378,442,198,390,75,240,89,186,-79,200,111,-840,-58,-325,219,187,-202,651,151,-605,495,12,-12,213,307,-1720,253,-48,439,196,799,-19,137,76,377,676,504,-269,-33,-84,-179,-539,41,157,-97,497,-381,41,13,-206,482,374,772,4,170,421,-11,356,-128,628,-212,-96,-92,-18,-634,58,57,153,229,231,-47,98,-172,-45,4,-158,-219,-147,-85},
    {349,-348,-222,327,-138,-2509,-82,-474,-3295,984,-156,36,318,71,-93,-107,22,-95,786,-100,292,97,-133,-507,391,477,144,-146,267,94,-281,-147,264,-1277,168,-181,-128,44,442,1498,195,198,-311,-55,739,130,-526,111,-32,436,290,-214,87,95,-149,336,-362,-568,13,193,-106,-4357,264,23,1148,319,-443,-227,242,210,-78,-56,40,-34,-232,16,361,1149,875,-337,-75,127,552,-265,107,142,-127,8,87,445,328,-159,-55,-74,249,153,365,-219,201,2754,165,-89,-190,1,-3,216,344,-140,137,295,885,-576,-101,-114,503,173,89,965,-434,-173,147,-200,22,72,456,59,288,-79,-246,-320,-440,408,-238,-3531,437,224,19,-180,467,-182,141,164,943,-285,-131,-338,-102,380,227,-303,-244,33,468,719,3559,128,571,471,462,-1099,260,281,39,-118,729,-5037,77,220,-537,117,330,377,-265,868,239,84,-33,-133,130,-15,-245,442,-712,-49,-30,125,-356,14,364,270,144,-56,768,-112,502,-669,169,-6,-609,349,161,-274,-35,360,242,148,78,412,-1758,153,73,-939,-285,239,290,912,-233,154,-310,0,70,67,-262,563,238,-127,216,215,3513,-3,2734,-154,66,-171,655,-99,-56,-1886,103,120,69,160,56,-41,-43,356,374,123,-380,178,224,740,-42,-97,182,199,262,-614,119,-231,-59,170,20,354,1763,47,-117,118,383,2,424,66,150,-114,446,250,-190,-105,469,159,-42,469,64,-230,-920,80,163,-2556,328,110,400,-145,-458,259,-500,37,-236,540,-56,12,507,-2666,52,305,82,231,430,-207,189,-1730,241,161,259,38,133,143,155,-32,10,265,58,570,-53,333,-76,1056,144,156,573,255,-251,-5025,541,-362,319,22,-28,938,48,267,-593,125,226,-141,180,-34,103,49,366,-283,112,-182,93,-174,-517,84,7,330,176,676,356,-162,-3176,303,69,0,176,-561,33,568,84,-88,-372,-97,2338,-71,12,348,-449,57,160,-600,128,-26,23,82,-419,215,-78,527,25,-464,-84,-11,-161,256,-53,49,-550,28,75,127,240,2,139,107,-10,-49,25,5,4,28,-109,-29,363,578,95,-44,159,58,-84,0,379,103,-46,146,169,-844,55,36,-73,23,-143,286,433,143,31,24,286,379,129,94,70,120,-736,-13,-1591,350,103,-277,790,208,-3999,567,-35,-2029,-265,865,-402,114,-372,390,137,-307,-2,75,-206,311,572,160,-303,-95,-55,86,-304,108,88,-219,231,-361,358,-52,-118,446,471,621,34,-12,339,-45,135,-131,498,-83,-105,-155,-40,-645,146,63,87,81,266,-118,113,-296,-29,42,-143,-147,-129,-174},
    {1069,-98,-440,64,-18,643,-49,-351,437,658,-250,149,313,28,-74,-335,-67,83,372,71,269,221,113,84,391,257,57,-173,275,56,-285,-169,389,-1153,196,-65,213,443,2800,1184,57,73,-359,246,543,-9,4365,44,-9,-5219,523,-56,-349,57,15,504,-534,-549,-407,714,62,-39,-1475,-197,-63,380,-177,1792,149,278,-91,-212,-473,31,110,55,-519,1400,843,-110,348,5505,-210,-174,76,51,-332,2329,489,496,533,50,-27,-11,171,273,136,-35,-65,404,120,51,-123,10,135,5,513,-78,-376,489,311,97,-184,-161,-3,206,413,-57,2610,-134,184,136,-141,145,-115,-1512,377,-30,-417,3346,-360,398,-135,-156,-945,-47,93,38,-134,-72,178,6,21,-206,-17,-260,-76,448,324,-204,-275,65,2763,684,-584,269,384,-142,500,-2581,278,301,24,-74,387,1451,-117,115,703,130,531,580,-191,742,217,-493,-79,38,158,-28,-149,297,-753,-151,404,284,-628,4,470,5,321,-106,-185,-2,102,-637,54,31,-672,352,193,-225,-458,-377,142,42,-4,-3755,-1637,116,167,172,-175,101,267,-226,-652,161,-101,119,221,153,-174,308,158,8,308,222,-559,-9,56,-28,-787,-134,657,-441,-99,190,152,342,-319,-82,170,-3,-270,302,505,116,-649,241,380,208,676,-47,349,228,524,-860,151,-246,-44,118,142,4444,-3440,54,118,102,366,165,983,-59,440,-167,-2027,190,-151,-757,298,213,-54,404,-11,28,-904,149,185,-260,271,-159,291,-122,-455,146,-388,-589,175,534,120,4,470,-2359,-69,-3,284,534,305,-169,188,-2425,-336,62,148,-51,325,432,1064,-159,7,142,41,1073,-132,426,-1,1100,274,161,1266,-10,-226,-188,314,-68,-129,-75,-170,1841,192,120,438,-30,-4,-239,209,-79,219,105,399,-207,-2310,-24,114,-95,-492,10,-113,150,-81,559,135,117,4309,240,56,-18,263,-481,87,3,-231,-55,-353,125,1892,51,20,228,-340,46,82,-781,195,10,314,46,-483,-203,6,599,-345,-60,64,-123,292,227,45,116,-1170,317,97,199,246,60,511,79,-43,-103,-159,28,-103,52,34,130,-34,276,134,-62,99,118,162,-25,403,45,7,162,2288,61,102,193,-45,29,-85,349,413,160,161,26,204,520,267,21,3,196,-753,-78,22,190,-504,-183,890,207,-101,505,137,-71,362,-3382,22,100,170,474,78,-34,28,56,-126,315,333,122,17,-360,161,-27,-62,32,320,-167,696,-314,8,60,-337,426,443,296,-12,-18,377,-3736,513,-175,551,-278,-103,-63,-61,-610,71,392,199,-3757,289,-117,180,-268,56,94,-100,-171,-221,121},
    {127,-250,-185,55,173,-79,-34,-128,575,733,-175,157,313,-40,-1,1,129,-112,-9,38,342,486,-153,-625,675,195,113,-197,-138,-176,-240,-242,301,-1144,240,94,510,-15,407,840,-3283,-48,-248,206,-66,50,1064,-50,64,491,280,403,-98,210,-60,52,-181,-628,-299,-12,-138,-264,180,1,49,-125,-143,-386,77,268,-96,4,69,129,-245,-40,-81,591,464,-25,216,998,-74,-201,-20,23,1978,193,1235,-12,373,-66,35,23,230,208,65,-111,190,-109,201,-47,-195,118,47,-163,379,56,-26,277,0,60,73,-155,165,195,109,-271,107,-177,83,-4756,-64,483,-147,281,604,-177,-142,-469,-384,223,-313,-139,4742,64,-86,126,32,139,308,47,62,-321,18,-168,31,342,-140,-430,-110,44,416,462,-376,162,867,-67,868,-512,364,187,97,-31,423,-4537,71,-510,415,282,249,718,-164,524,383,-299,13,-375,308,87,-1152,224,-620,528,-162,332,-692,153,652,104,-395,-165,-344,-1528,435,-567,-110,89,-631,279,114,-282,-149,67,414,-27,-140,274,-72,-144,40,239,-3382,-228,110,101,-432,356,143,319,124,-1710,-171,317,151,-161,169,520,151,202,-149,171,975,-221,363,-180,16,0,151,318,-97,-31,292,-199,144,269,1234,176,-278,140,352,531,1374,429,-6670,244,-331,-39,211,-205,291,112,181,-59,368,-124,128,115,335,182,176,618,278,-45,438,-33,-253,-16,327,257,-16,410,-75,-38,-899,64,-3492,-373,212,-32,290,-64,-458,260,-501,-2635,-606,516,136,37,413,-638,368,-144,991,322,133,-618,94,73,-34,70,211,451,-23,575,-4771,-215,36,-15,983,384,-179,576,30,247,400,15,1213,-80,319,-96,666,-191,158,133,-127,521,217,201,-18,-244,-94,-234,107,-102,221,-520,402,-166,193,-137,20,-82,-514,-136,42,-2876,130,376,314,-5429,-2760,144,52,-36,419,-364,-60,14,-95,-631,-205,-43,176,-292,185,293,-439,69,0,-366,-158,-64,-1710,-46,-529,25,34,995,-2973,-137,-8,7,-419,3,-165,103,-593,164,-78,354,296,137,369,282,-94,61,-86,206,-195,-20,-518,-83,103,459,487,63,232,-28,-237,-11,705,196,-4,92,-217,-854,75,-55,21,23,-152,270,260,159,-2,2,1096,1746,242,187,-159,74,-506,249,291,146,4478,-263,725,117,62,440,107,-434,121,577,4,27,-313,751,70,-56,-525,73,87,337,266,-108,161,-400,-49,300,-125,26,1444,-72,232,-376,-86,4081,-2200,504,462,203,27,-263,246,-126,-74,-113,259,-156,-194,-128,39,-368,-170,440,492,187,194,114,148,-393,6,77,-154,0,-106,199},
    {-155,-214,31,47,134,-39,-91,-260,634,240,-226,34,302,-10,-91,-311,131,21,-88,-212,299,207,56,17,802,204,132,-1010,165,1,-265,-137,156,-1089,250,856,-183,328,213,864,65,35,1465,-3,-161,89,-581,96,-174,-125,46,403,-115,-88,-1052,351,-269,-665,-1019,1643,-329,-202,-104,160,-51,7079,-65,1921,-72,38,-73,-324,-88,2,-43,-53,123,-152,549,186,357,-1905,-154,-265,-111,-180,-477,-38,1230,-439,264,-187,-56,22,150,-24,-73,2342,335,-29,102,114,96,-127,47,-269,344,325,-34,283,-534,-7,20,-66,14,158,238,-124,321,-87,130,-32,-20,-182,-210,3265,538,-267,-460,-190,-434,934,-254,-50,-292,81,136,172,-2,40,49,-858,4,756,44,-375,449,163,425,-30,-411,15,370,743,-351,128,688,-111,510,-197,373,-877,183,-155,306,374,-21,639,130,152,484,257,-175,779,683,-128,643,-55,-19,208,-2543,83,-613,97,-35,205,-767,236,943,-6,298,-152,-463,237,69,-708,-141,-27,-638,539,30,-255,-55,189,449,-13,-152,296,108,-94,219,409,2451,-207,120,-3,-113,232,393,569,151,54,-272,89,186,-3286,62,474,-69,141,-53,111,-131,-157,166,-540,-56,-22,233,312,-194,-134,286,-5402,-68,416,10,112,-544,144,-77,251,1558,321,1050,182,79,1,90,-200,80,135,127,-9,170,-102,-161,283,412,428,195,-148,264,247,-90,281,-72,125,313,311,70,364,-108,-66,-822,46,74,-176,263,357,279,-175,-481,385,-369,-1507,-352,465,7,144,124,268,-1387,-163,35,348,-8,5323,150,108,21,-184,211,643,101,285,113,29,164,2,145,736,-132,644,-750,232,111,-215,238,-66,280,-231,105,-171,199,-418,-107,589,157,157,120,-325,-135,-203,29,126,-48,-379,131,33,198,-150,-23,-80,-586,-840,239,297,0,355,1220,459,-128,1834,112,-118,-663,-291,-74,97,-249,-1957,-26,-71,229,481,301,230,-125,5603,-97,-579,253,-6,300,288,-473,-1,-263,946,-1215,7,191,-115,650,172,69,-39,-359,-226,-374,912,324,350,634,204,-40,124,69,245,-169,-247,-183,2266,-47,601,96,-165,158,-15,-127,278,364,194,56,-135,-112,-338,393,-21,-120,131,-134,262,208,199,-51,37,425,-83,-214,13,-186,-80,-668,221,363,160,-1419,-197,768,-51,-46,504,-1976,-196,119,313,101,-129,21,557,-185,-120,123,919,243,337,365,51,111,-269,-86,-42,34,-59,-5161,-994,1065,-427,550,20,-338,501,206,304,34,-245,271,-132,-12,-158,62,-145,-422,-119,-418,25,-1181,-143,226,203,148,416,58,-376,109,883,-147,216,124,231},
    {-201,-388,301,110,400,76,-216,-383,501,366,-36,128,361,27,608,-6,0,40,-316,2,294,13,-42,215,657,289,112,-825,656,72,-334,-105,337,-996,426,189,-171,177,57,718,238,-38,-185,149,-383,441,44,-804,-234,146,-10,428,15,43,-2357,-36,-227,-625,-644,45,-430,-174,91,121,-195,203,-148,-186,-76,202,26,-1801,3,1705,-227,30,-66,149,883,183,221,-47,-135,-261,78,-92,-41,213,1314,-296,554,-54,-94,64,90,239,-21,-63,260,-3,-135,44,-179,-543,777,-329,468,-414,-2,400,128,110,-43,-330,347,311,354,-201,-163,-175,121,614,-49,146,-371,191,431,-235,21,-254,-534,205,-250,21,-258,113,107,109,84,137,653,306,140,-787,41,-336,246,347,491,-530,-620,106,199,313,-243,169,529,-89,1993,-18,352,-87,381,-255,394,323,58,-409,237,-373,519,150,-146,789,-23,0,337,-187,702,265,-1514,60,-619,32,475,2580,-602,199,616,757,-403,49,-284,-106,410,-647,-188,-150,-533,116,375,-238,-9,175,448,66,-16,217,128,-16,-16,342,-3219,1302,78,-18,-63,1059,297,563,180,-316,1679,185,53,-160,102,933,64,176,92,182,-20,-125,246,-318,2688,-4,204,147,25,280,424,130,271,177,183,127,-396,174,105,488,1224,364,-7618,157,-90,-82,49,-355,104,241,123,87,161,3785,-277,622,340,602,374,4052,158,-761,-265,177,2,-14,485,286,677,390,-37,-41,-980,-170,140,-217,382,-75,268,-54,623,424,-474,-15,-236,477,188,-1728,183,68,116,-122,504,199,-207,-302,59,198,95,-113,187,335,133,270,-191,-42,51,227,1573,539,-187,512,2229,266,235,-115,331,-189,256,-115,217,-124,177,-85,-127,585,54,532,92,-315,-138,-149,64,197,129,-434,171,985,102,-55,53,-112,-678,1888,308,179,95,233,191,267,-110,236,300,37,83,-366,-55,-161,-206,-2362,-227,-185,357,0,258,-6621,12,575,-165,-203,587,-33,78,344,-429,-58,-133,910,-500,35,21,95,-23,92,125,-76,-303,-24,-425,862,428,256,391,130,41,-111,34,469,-195,-332,75,-289,-115,639,372,-130,270,27,320,103,557,272,-127,70,-153,-433,128,-272,194,2968,-196,378,153,204,209,477,1723,930,631,51,-346,-149,-696,407,388,370,55,-300,807,1031,216,780,244,-194,72,509,83,-73,-230,687,-50,28,-470,-9,214,359,186,0,225,-227,-24,55,118,1,684,-66,246,-392,-270,1,-129,509,34,53,-101,67,263,-94,-151,-122,224,-132,4098,-129,1405,578,-103,-179,-8003,323,195,-286,-27,-179,17,96,-190,420,-308,234},
    {6,-174,114,193,196,-42,363,-59,358,240,27,53,352,8,-558,-10,-134,-9,-326,25,363,-59,-60,153,195,207,145,-784,2754,37,-225,-63,262,-877,352,794,-196,290,170,865,39,-13,-12,0,-495,140,-188,201,-138,42,-110,139,-27,588,-1413,114,-200,-582,-476,2190,-323,-170,77,-13,-214,-83,-77,20,-109,189,74,-837,127,2443,-69,143,76,-38,876,64,227,113,-9,-193,-8,-957,-129,202,864,-1136,-85,1903,-48,-41,255,235,0,5,190,113,55,49,-12,-170,189,-166,421,74,8,243,-168,213,-51,-294,166,111,285,-183,-111,1764,33,85,35,113,-329,335,499,-202,-294,-128,-453,90,-643,10,-226,94,108,51,-27,82,320,216,134,773,2,-205,26,87,402,-142,61,-313,334,513,-219,7,65,-88,465,-81,206,320,390,-247,239,64,50,-72,153,-1968,460,152,-92,686,-2213,-125,-128,-125,-4,581,-387,143,-595,104,34,146,-354,119,358,346,115,-1026,26,-20,72,-741,-145,-127,-577,216,-189,-191,-124,170,354,2,-66,62,178,30,73,369,183,507,-33,-105,29,-600,175,-3478,102,295,-884,150,88,-2394,6,801,-43,87,139,348,46,-112,196,-408,31,-51,225,55,-142,1873,355,293,187,151,-62,-9,-491,238,-36,278,1134,444,654,123,-140,-158,107,-191,-112,182,92,-105,46,-463,-180,821,274,380,144,68,85,390,-44,191,67,50,321,235,336,330,-164,62,-859,237,22,-88,316,148,204,-85,-467,498,-366,121,-73,414,3012,256,330,-255,-26,55,54,305,-383,327,-47,239,-80,-50,261,229,63,175,245,-41,147,472,-9,822,-174,379,-993,125,144,-97,309,-59,147,-298,96,-99,152,-165,-152,1636,175,260,53,-250,5,-86,14,59,107,-272,25,593,91,-127,27,-202,-587,-1197,221,189,172,210,275,57,-114,294,187,135,98,-306,67,-109,-123,-623,-180,-100,825,-44,193,434,-82,3687,-118,-248,123,-27,61,952,-357,72,-185,726,33,-66,104,160,66,126,80,-79,-125,-59,-689,543,459,-2594,361,63,38,-118,55,265,-43,-323,-415,-109,-114,340,13,0,332,-143,-64,181,290,248,166,102,1,-335,171,26,1146,373,-333,260,69,157,85,1785,984,28,53,-41,-84,-72,-638,111,284,316,-28,-217,490,-5302,68,546,189,-172,100,262,60,-74,-72,416,-147,-55,-132,-323,170,380,55,73,172,-117,-40,-32,46,-44,157,-526,1098,-363,-190,-38,-201,478,378,109,-152,-155,327,-75,-157,-217,403,-265,0,-118,-614,1027,40,130,224,355,202,-3752,-135,-151,-5,732,-123,192,-81,36},
    {-139,-105,-179,195,-72,-345,3,-310,-44,628,77,134,399,67,32,-107,-84,-2,659,-57,335,251,-66,210,-45,991,171,-33,-56,-6,-261,-44,177,-848,146,-97,-152,374,231,1016,1,60,-64,80,393,28,-57,32,-181,109,322,-485,-6,29,41,386,-363,-554,-43,163,-87,-228,147,56,145,32,-400,-75,196,1579,246,-193,77,-59,-46,63,240,156,973,35,381,223,491,-530,164,136,-46,185,-45,446,134,-131,-1224,-85,77,230,635,-39,276,27,71,-97,-107,-6,-74,170,417,-12,106,438,160,1814,263,-112,129,470,260,-186,49,-213,6,-4,-322,-36,1280,-170,145,-140,-43,-55,-325,96,-72,8,-147,1769,186,-155,3341,30,147,174,74,-394,1482,-291,-56,68,372,-61,-81,224,598,819,-274,-43,48,179,775,-2,206,269,80,-118,277,70,1372,135,-28,283,-95,430,-130,727,69,118,-7,-231,112,-59,45,-93,-711,-38,-279,112,-343,33,303,20,18,-112,1026,-131,188,-725,-33,11,-561,-234,39,-220,192,1153,73,150,-149,46,-83,-39,127,250,-48,208,-789,299,-217,249,-159,-92,-3632,237,-222,707,232,-67,226,38,170,32,681,173,140,-62,682,-298,-30,21,77,-76,57,114,305,-77,163,170,134,-43,-576,-1818,93,408,101,127,222,452,-170,-381,61,-285,-15,105,92,-170,161,48,-250,43,277,114,301,44,186,-80,125,202,0,-246,343,-16,222,373,-55,4,-1004,38,-15,-300,342,-99,434,494,-379,189,-385,101,-1,473,48,58,389,59,-124,-6,3,196,89,-205,279,-1780,-113,73,295,-12,-82,230,201,-166,412,467,-19,587,334,329,12,846,87,-156,194,264,257,254,281,1487,143,-33,12,1980,166,90,52,752,-462,-98,875,-7,55,-265,65,-276,148,-406,31,-114,-443,61,102,71,56,652,13,-13,-53,158,-317,-10,59,-261,102,760,208,-85,-315,32,335,-63,-1587,19,-179,-74,891,-374,-17,-8,85,117,-97,19,-141,441,140,-287,-163,-74,9,171,-54,914,-102,-105,-11,131,283,26,244,111,-31,-149,71,3,-231,-85,-262,-131,-95,179,-83,-326,1400,267,93,66,404,116,-29,66,-133,-195,67,-236,-80,46,-198,373,286,213,225,17,132,-126,126,-136,220,-123,-771,-125,366,310,185,-230,524,125,-345,542,48,-123,-59,372,-1293,226,-32,355,160,-1685,-8,79,-14,421,562,-3673,227,0,-90,-43,-458,0,62,72,378,-384,354,-30,-67,489,252,456,-57,-25,383,-24,40,-240,421,-336,-25,-71,64,-599,130,-39,-51,330,255,17,136,5,-106,-44,-108,-221,-150,-173},
    {88,-186,-216,410,-103,803,27,-354,-66,1259,-42,17,392,-247,12,-158,-64,4,579,-47,348,4,12,214,17,815,165,98,-5,166,-305,-106,209,-909,165,-42,-93,105,358,1246,-7,224,-120,125,497,21,-86,-12,-136,30,213,-440,380,63,58,-194,-482,-657,9,26,-66,576,102,-16,284,126,-244,-58,244,597,146,-162,-11,-20,-77,88,-227,245,904,-299,-720,209,-1341,-1360,297,105,-112,289,-65,373,63,-88,123,-73,29,287,166,-221,368,613,152,-128,-128,-17,-54,268,407,-102,-46,461,487,3108,296,-157,202,164,247,14,30,-188,0,139,767,-18,-4841,-211,224,-13,-226,-175,-341,103,-187,-4831,-60,765,32,-200,-2709,-50,209,208,3304,-452,229,-234,-84,44,408,-114,-148,161,656,682,-487,-62,306,-124,841,-116,173,346,138,-81,207,308,246,162,-232,261,313,746,-121,710,64,1470,-15,-217,354,-109,32,1544,-704,-33,-79,154,-364,0,223,33,144,-129,346,-120,373,-804,65,-25,-573,50,143,-278,-130,-225,233,172,-70,134,-1616,108,226,-77,1,313,-465,-155,-195,163,-229,-31,466,164,-193,1272,218,-97,238,137,-1042,-38,528,-12,121,-114,670,-142,-54,-31,82,-65,-16,112,222,-115,54,359,64,42,-394,175,91,317,224,-54,228,372,-219,-503,84,-229,13,118,400,-193,-333,55,-168,0,269,27,662,-65,90,-117,-212,255,-123,-21,381,-107,169,393,187,4569,-999,78,31,4374,356,-299,514,-345,-508,21,-465,101,22,555,84,75,478,41,-47,159,8,161,221,-252,254,-1648,-138,-118,278,-31,-579,374,393,-104,435,448,22,731,-59,460,25,648,86,-152,387,191,389,289,434,-1351,249,168,-55,1969,-66,94,43,1121,239,-114,533,-150,13,-215,202,-340,158,-1868,21,-98,-449,41,29,202,336,791,145,-111,-83,251,-306,-17,122,-266,73,825,-5467,-44,-309,-179,674,0,31,28,-366,1,662,-189,-314,-18,59,73,-160,-133,-171,671,202,-383,-40,-92,9,226,-90,2766,-241,-112,67,96,286,40,282,269,411,-123,95,36,-1869,60,-219,-61,206,311,-2,-262,-2895,195,10,74,510,111,-27,457,-90,-1,120,-87,-102,50,-210,371,325,242,229,-43,185,-135,202,143,210,-2,-574,-103,-653,255,164,-244,470,144,-927,456,2,-577,194,483,-426,169,303,500,136,833,60,97,56,370,747,-2208,-16,-40,-147,61,-469,89,180,-22,302,-343,234,-59,-302,511,435,285,-163,115,404,-165,232,-192,634,-379,-4,-96,9,-310,142,-28,-235,313,219,55,104,5,-79,-19,-174,-367,-267,-36},
    {551,-97,-294,411,-42,-4506,-85,-201,8,552,-149,-141,298,-34,77,-205,-60,84,700,-70,271,269,-41,178,98,515,128,-148,-65,-56,-237,-130,199,-1214,184,-3,-141,316,-5351,1130,156,214,-166,333,426,27,-272,-114,6,822,132,-270,-257,26,106,-16,-440,-662,-212,-28,1,-840,401,-26,894,187,-640,81,337,272,-133,-132,236,14,-244,52,-4969,634,836,-314,309,82,366,-1230,138,54,-98,-109,74,312,211,-121,151,-70,75,249,157,-193,271,1063,265,2,-89,70,-43,103,265,-76,657,259,343,-416,216,-231,210,153,267,-1628,-48,-195,163,220,69,-240,106,92,267,28,36,-154,-346,32,-190,-104,365,108,253,-83,540,-5,61,128,-209,-373,-74,-298,-31,579,342,-155,-232,175,874,608,1398,-3,182,882,700,-216,271,239,109,-21,491,-7,126,86,208,218,313,897,-60,797,98,-78,-40,-237,126,23,36,360,-612,-160,29,208,-351,26,291,109,-375,-160,358,-103,12,-683,12,-35,-607,285,149,-231,-104,544,209,241,213,134,-1732,170,-313,-1248,-168,187,235,-6318,-501,108,-255,69,135,316,-181,697,-924,-77,229,102,3164,42,741,-248,186,-72,498,-300,-49,-1863,111,26,-136,53,161,-43,195,-1988,328,21,-547,345,57,262,-61,-8,149,153,9,-548,181,-232,-11,86,160,555,274,136,-354,44,263,-69,340,77,156,-71,937,261,2,-2407,296,-8,159,381,66,46,-1001,107,13,-1168,367,-66,370,-169,-394,14,-409,98,-220,471,33,110,390,-156,-146,20,164,341,169,-222,104,-1703,3128,134,259,-62,504,164,572,-106,264,268,39,624,-110,369,-59,1167,88,-81,512,31,-377,-229,385,3012,274,86,-22,332,284,6,-349,-6,215,-217,283,-123,129,388,119,-174,118,-91,140,-97,-392,15,-19,223,-24,631,598,140,-475,258,-184,-38,108,-267,45,654,-46,-54,-334,-188,1081,93,-431,96,-235,75,36,-680,-32,-26,130,156,-250,43,-198,589,19,8,23,-146,191,228,-113,102,-648,329,57,210,289,20,471,1769,83,-90,-152,-29,-138,25,-116,-154,-6,339,8,76,8,45,2,44,483,56,14,-126,1538,-691,144,-183,-72,81,-99,356,311,198,145,-82,195,-36,124,115,152,38,-733,-22,577,108,88,-184,442,151,-112,321,-6,14,-30,272,-431,101,111,416,124,-182,29,81,70,310,490,170,-51,97,-197,-46,-125,87,251,-192,333,-325,-75,-197,-233,371,706,595,-80,-47,315,442,570,-185,441,-246,-52,-195,11,-283,215,260,116,200,198,38,48,0,-12,-17,-62,-275,-128,75},
    {1179,-64,-335,223,-83,986,-148,-376,198,1045,-263,148,302,-113,31,-324,110,-27,362,19,273,285,131,167,107,318,253,117,-8,248,-262,-85,222,-1157,237,112,196,110,1464,890,15,309,-236,265,48,17,572,13,46,-5247,21,74,106,80,301,14,-475,-606,-274,38,-81,489,-1786,100,-115,75,199,224,109,132,-31,-174,-146,73,201,-12,-199,82,803,-228,-47,101,-29,-228,112,93,1820,269,128,56,166,-139,15,-31,111,347,132,-277,-458,263,168,-2476,-136,45,-28,69,282,-109,-269,284,144,149,199,-90,-537,87,-670,1609,553,-117,231,-250,43,44,-26,-207,290,-42,-157,-828,-345,362,-118,-140,-379,45,73,124,-198,-31,8,-83,3404,-307,-165,-217,133,-60,115,-250,2926,136,453,734,-412,30,638,-116,618,-965,185,402,116,-35,298,499,76,154,88,154,318,148,-62,726,149,-722,-77,61,106,65,65,138,-617,-30,-147,309,969,8,529,280,625,-179,-146,471,638,-711,-39,86,-637,121,179,-218,-208,53,230,111,-72,-2070,-1602,-103,83,-44,-271,124,203,-215,-260,184,32,101,188,352,-169,271,132,-69,306,193,-677,159,10,-38,28,-163,385,-225,-80,37,64,62,-339,54,301,-187,274,1062,503,104,-280,296,181,318,-144,-60,82,79,-41,-282,120,-135,34,114,182,-221,-281,59,621,58,336,223,342,134,275,-26,-6495,280,-331,597,278,137,91,375,180,-6,-986,61,-5608,3751,359,-88,309,-236,-419,5,-625,-258,164,461,122,39,297,-41,93,163,482,99,146,-191,55,-2403,170,-331,315,271,-53,349,-301,-125,186,155,80,465,-96,577,-26,668,61,-202,386,-95,573,-200,729,-172,1582,192,-153,762,216,-36,-169,-99,172,-196,285,115,112,-328,1042,-250,71,-91,205,-100,-400,112,126,23,-68,497,120,597,-483,282,18,-145,120,-255,116,107,-307,-87,-167,-398,880,14,138,-5,-770,16,86,-210,-241,7,499,15,-265,3024,35,769,-1065,-93,30,-66,61,276,-12,39,-1424,-80,-57,166,298,65,406,303,14,-67,114,-102,-170,247,-195,24,1006,337,-204,-42,325,-27,-222,135,375,8,-2,394,-265,5081,328,-66,-79,64,-184,343,285,175,172,-10,274,2002,215,364,86,160,-480,15,-718,121,76,-234,470,206,-346,264,196,-571,678,720,148,54,1021,544,10,62,47,-4,-135,319,311,203,221,-398,-20,-158,-64,13,323,-243,315,-314,16,202,3740,358,677,487,-20,129,328,-635,227,-89,584,-271,-170,249,-185,-255,-224,-7101,-70,262,169,82,-8,-67,62,8,-84,-167,-233,68},
    {128,-656,-185,132,4,-70,-207,14,493,309,-385,142,310,46,63,-275,260,-101,28,107,316,386,-91,152,284,268,320,-430,-63,-570,-273,-145,208,-1051,269,90,743,173,-4220,650,-2361,377,-190,331,243,80,-459,139,75,714,81,859,-16,84,242,21,-342,-618,-380,94,18,-273,216,-60,25,-2,-271,-4,-38,116,105,-168,-67,-2,-458,-71,-98,249,631,-111,240,186,84,-82,54,21,-175,3127,123,331,152,-116,4,3,283,293,-42,-97,330,74,139,33,-320,-10,18,-22,376,-49,583,225,184,-35,100,-329,348,139,98,-346,624,-134,419,784,-94,53,-282,445,413,-67,140,-259,-341,-3154,-267,62,1664,7,-139,21,147,29,119,-495,-158,-529,-62,-127,193,384,-4543,40,-1017,158,623,713,-436,81,945,-59,749,-129,492,258,100,-76,-218,115,49,62,190,292,391,262,-158,-6133,137,-247,134,-59,383,109,-1035,257,-631,489,45,363,-630,110,611,373,-2835,-184,-179,-1544,-44,-696,-146,94,-627,388,37,-253,-376,141,347,27,-62,165,-106,227,77,306,-266,106,182,121,-306,297,1246,144,209,-1044,-254,124,117,-265,358,279,63,196,27,-158,515,-118,322,-341,-114,-44,137,123,-264,240,347,305,133,-915,173,77,-509,234,27,224,527,163,-544,92,-221,38,119,-229,419,0,213,232,102,95,-166,126,340,213,197,493,394,-17,772,1653,-166,-3216,295,232,163,379,-71,-68,-884,34,-120,-338,284,14,279,-41,-364,-14,-408,-1180,-2638,451,115,104,4,172,-849,-213,592,165,72,-555,16,124,8,24,185,296,198,715,620,-174,130,-124,1424,540,-128,421,-63,286,97,-137,-5603,-83,137,-45,587,-155,232,184,-83,1471,215,199,-221,-211,22,-251,200,-147,51,-59,390,-294,-2091,-35,23,-91,-451,-183,-87,-2335,-39,322,439,-1443,-503,-4007,84,-94,-188,-307,-19,14,-169,-228,-259,-84,299,-82,191,134,-41,83,-134,-604,259,-99,-3121,-20,-328,114,107,1014,-1783,-8,10,-197,285,17,-15,98,-622,161,31,420,285,85,459,258,-110,-44,-253,53,-77,-47,-93,304,235,258,-6654,59,-33,93,-41,211,765,183,-75,-193,809,-807,254,144,-89,70,-175,324,212,221,35,-6,760,189,463,313,-54,170,-593,146,373,230,26,-214,873,156,-46,262,-105,-231,120,540,138,13,53,678,104,8,88,154,32,321,257,23,248,-12,-16,643,136,-41,1944,-65,492,-389,125,-362,-966,426,634,144,-132,20,330,234,375,-170,331,-358,-129,-340,-32,-123,980,-63,230,52,143,165,-171,-221,4,161,-104,150,-200,72},
    {-78,-48,5,127,-40,261,-329,-52,374,262,-142,195,301,47,93,-224,-22,-323,-74,-73,306,241,57,93,217,278,25,-427,-222,304,-307,-51,302,-969,359,1108,-133,35,236,703,171,271,1333,430,-30,-180,108,35,-4,97,135,698,153,-29,-776,-131,-302,-665,-823,1413,-245,-116,-97,-11,0,111,-243,317,38,194,142,1414,52,33,96,-109,169,-18,713,-28,144,414,18,2,64,6,-406,225,414,-248,85,-101,0,-76,111,320,-100,-106,322,-11,11,14,-125,42,179,-48,441,5,38,198,114,-7,-12,-26,4652,169,252,-208,406,-53,282,104,-71,132,-300,302,207,-323,3503,-266,-452,88,3817,2,-214,23,18,133,123,127,131,-1307,10,646,-123,-221,1333,191,207,-400,3504,169,402,790,-330,253,1180,-124,513,-96,115,342,238,-264,186,99,34,413,162,184,-24,204,-94,673,14,-3,199,-26,-80,340,-990,11,-584,-38,259,691,-685,95,605,-331,671,-181,-471,532,350,-738,-178,25,-546,685,173,-292,-328,160,423,68,90,221,108,-78,93,386,-148,319,69,-167,-164,359,1945,425,173,159,-512,47,24,-266,97,760,70,258,-26,-26,196,-232,205,-303,10,-94,142,55,-222,324,269,-471,142,242,122,66,-279,181,86,328,870,556,445,180,135,4,42,-130,21,168,158,90,169,140,-180,246,375,484,193,-31,233,-20,-56,213,30,211,408,282,459,385,-189,-24,-907,46,234,-259,354,15,258,8,-361,216,-539,-514,-29,487,129,37,63,410,-193,-596,129,63,1,2262,14,165,167,-166,314,1248,220,405,-210,94,157,-89,14,380,-154,395,-332,231,153,-319,274,-57,121,-127,478,-93,219,90,-200,1205,199,110,63,-86,-87,-264,95,-5514,116,-367,161,11,137,-118,84,-95,-599,-728,40,203,-49,240,204,735,-176,1044,152,-112,226,-425,-93,-117,-279,-951,-138,-221,193,201,166,140,-8,191,-103,-348,-210,-68,474,240,-283,-49,-24,995,-1555,-109,107,19,145,-79,-90,-31,-281,32,-98,915,356,212,385,141,-94,140,-24,254,-221,-43,-267,2167,-6,525,-121,71,187,-56,711,490,403,275,542,-108,-228,-156,268,-39,6,209,-209,268,56,260,113,7,1031,958,134,385,-37,-92,-490,749,280,165,35,-239,335,358,20,408,-2153,-241,168,311,166,-108,22,663,-10,-43,246,416,130,343,259,135,162,-134,-68,-83,288,-1,-4756,-298,1554,-355,131,335,3943,439,575,283,-114,174,232,-147,-11,-228,289,-311,-329,0,-439,-171,-980,-204,-115,187,152,369,-195,-576,123,950,-178,232,-1259,154},
    {-63,-204,502,92,-4764,220,-1285,-124,330,329,-173,102,342,31,-112,-281,31,250,-194,76,369,238,-158,228,211,282,152,-663,85,-61,-367,-72,277,-1056,514,20,-171,206,297,812,99,295,-49,84,-104,329,-120,-1171,-205,-7,69,543,-82,333,-1761,-79,-277,-709,-588,542,-521,-89,148,-46,-130,146,-110,-29,38,206,181,-1782,-176,249,-319,-31,-24,-123,852,17,257,42,-25,4,75,-435,-309,181,1072,-230,716,-216,0,-89,162,180,-212,6,238,-128,-176,22,-243,-319,762,-40,494,-348,264,288,-21,69,-91,-1594,337,215,417,-203,-113,-183,53,233,-79,156,-413,426,278,-263,-59,-129,-466,-44,-559,84,-224,1,43,96,138,211,489,-245,-11,-761,-62,-503,-44,-18,460,-322,-160,-62,317,405,-262,79,737,-204,606,40,467,125,411,-358,205,227,51,29,220,-151,317,337,-2,887,-144,-16,51,-65,685,1372,-1137,85,-604,-44,391,-2888,-620,49,806,368,-472,-395,-343,-137,99,-632,-201,-31,-470,476,541,-222,-56,51,240,42,-116,153,169,0,139,421,-367,1152,75,-69,-131,468,748,596,190,136,592,95,197,-505,-200,996,81,238,42,129,246,-139,81,-393,1918,-93,167,10,-114,161,418,347,134,160,226,-61,-428,213,161,287,798,81,-595,165,41,-78,206,-319,224,235,182,-34,226,543,-221,538,379,509,282,895,46,-182,-3,197,15,-84,540,255,204,398,-120,-151,-997,10,-163,-227,402,-30,303,17,643,222,-392,-33,-471,475,480,-1703,163,182,261,-50,368,272,-35,-324,-91,232,23,14,262,567,147,500,697,-90,206,143,1225,541,-179,365,4821,168,149,-363,649,-187,49,-137,257,-130,174,-410,-191,779,118,634,68,-264,4,-173,148,-112,39,-488,136,1696,78,-30,53,-127,-704,667,124,242,73,271,265,24,-226,-5611,232,-6,-679,-494,-172,-197,-222,-1085,-211,-52,153,52,262,520,69,108,-118,-264,387,-124,11,-6733,-256,116,-105,1044,-284,-106,271,265,175,95,610,-55,-216,-155,-969,1235,445,460,434,217,-83,79,-16,339,-218,-247,25,0,-126,464,27,-110,290,118,8,78,766,307,36,-50,-88,-364,201,325,762,512,-205,434,115,264,30,135,1573,-69,756,-45,-55,-117,-616,713,257,147,165,-202,1945,1630,-30,574,38,-165,2,369,84,-129,-98,658,79,14,299,202,210,380,132,106,155,-118,-28,-21,151,-42,626,-51,339,-346,-41,-166,-212,512,142,-12,-239,149,263,-95,-160,-255,347,-395,-50,-18,1739,-10,1049,-110,287,298,132,-332,-162,-170,-36,134,-185,524,-21,84},
    {-15,-90,277,224,151,102,-541,95,192,286,-20,150,327,44,-418,-99,-114,90,-152,56,356,91,-48,221,54,257,104,-401,195,55,-214,0,226,-890,383,772,-158,237,155,929,-51,158,-111,60,-86,189,-106,207,-100,73,22,165,87,-55,-1259,-21,-150,-491,-304,917,-282,-143,40,-16,-95,161,21,17,25,167,202,2774,138,157,-39,76,83,-44,824,23,330,106,59,-68,11,-991,-172,196,286,-1259,-355,862,-3,-70,451,408,-118,-2,188,-39,-30,-34,-155,-189,554,-103,444,53,11,284,135,185,-143,-209,65,261,319,-226,-65,1790,47,63,-38,50,-336,179,371,-249,-128,-79,-449,24,1170,-2,-223,43,76,158,21,29,455,28,107,555,-62,-387,153,160,256,-190,33,-1061,263,608,-222,8,270,-68,426,51,20,174,343,-410,55,172,61,212,163,-661,214,290,103,580,-215,-17,39,-39,-6,1683,5,128,-552,-4,86,763,-353,22,569,134,417,-598,-204,-59,181,-666,-147,-79,-504,309,8,-153,-96,94,276,2,-41,18,174,-15,89,427,-141,460,37,-18,-84,-433,143,-5341,138,271,-387,62,109,-212,-74,905,17,-15,49,159,152,-130,123,-285,326,-117,310,-64,-123,1311,283,-116,75,93,6,-137,-381,314,120,278,609,297,257,118,-46,-105,58,-173,-118,239,115,-3,76,-393,-247,-4101,284,379,179,38,13,165,19,200,44,8,361,231,263,341,-202,-11,-802,470,-61,-109,392,-17,287,-50,-418,211,-424,132,-95,425,2682,214,208,-12,-28,149,228,324,-141,197,-68,226,66,-11,281,434,213,89,184,-42,143,460,93,287,-189,208,-905,132,165,-111,266,-51,110,-30,221,-53,176,-227,-200,1444,209,332,39,-163,34,-161,108,227,144,-239,46,628,74,-28,101,-112,-581,-682,141,95,98,237,181,80,-116,172,103,38,17,-465,40,-225,-180,-308,-133,-16,396,88,180,-96,32,356,-131,-242,122,-70,35,813,-223,38,-12,855,240,-41,-103,130,-51,183,99,-58,-109,-20,-564,736,361,-2335,274,149,-16,-443,-81,512,-152,-196,-432,-186,-122,294,-38,66,252,276,243,112,327,241,-8,121,-126,-352,241,-116,1238,265,-284,303,11,164,87,1130,1026,-7,228,70,-7,-173,-561,-9,244,13,72,-273,517,-4330,41,443,222,-162,19,309,129,-100,-101,470,32,21,52,-223,201,336,0,161,200,-1,-63,-217,37,19,279,-226,1461,-311,-163,-89,-231,467,239,174,-241,10,237,-84,-50,-230,393,-287,223,-17,-689,301,-273,-54,-441,320,133,-3784,-169,-40,27,829,-172,80,-189,41},
    {-180,-161,-241,349,-70,-445,49,-184,488,317,-125,5,370,189,19,-174,-200,-48,661,-24,323,178,-100,171,-21,874,142,-52,8,95,-230,0,141,-964,146,76,-121,289,91,1024,14,143,-84,175,302,-35,-19,60,-246,211,301,-407,130,-3,181,249,-326,-517,-61,54,-124,-150,108,-65,-68,38,-468,-46,156,1200,156,-203,132,-77,-62,87,22,57,1236,0,317,138,370,-722,48,90,-60,145,-1,488,240,-117,2258,-56,-20,208,-3059,-153,249,9,188,-64,-85,12,-33,88,389,-110,106,607,271,1674,187,-103,105,472,297,-32,6,-207,-50,11,-307,139,495,-164,195,-75,-42,37,-280,12,-161,-183,-245,608,156,-196,3525,70,161,187,606,-356,1999,-256,-22,139,410,-8,-47,256,436,1102,-400,25,145,-134,523,45,333,309,111,-64,128,107,1056,139,191,317,-286,485,-13,658,-1,233,-117,-144,140,-143,86,150,-664,-96,-189,155,-274,31,139,101,-15,-160,477,-96,216,-725,-1,71,-571,-108,56,-189,117,852,64,202,284,42,-19,46,120,245,-69,150,-948,-101,-206,254,-105,-106,-3764,138,-193,613,71,-14,217,33,67,-32,100,77,121,-73,545,-202,-93,10,29,-95,20,72,372,-86,222,128,62,-52,-431,-2818,-18,311,164,30,101,523,-142,-364,39,-291,-119,63,140,-121,-107,61,-116,30,239,205,345,11,134,-145,42,145,45,-281,306,-133,132,298,105,226,-991,21,23,-90,390,69,356,53,-371,214,-450,139,-73,478,52,184,367,46,-91,7,-108,373,57,-225,277,-1773,161,-24,209,-34,-1227,242,222,-148,300,514,-4,393,-63,221,56,712,75,-106,58,331,620,286,242,200,206,-18,189,104,175,155,108,1344,-478,-122,972,-62,50,302,76,-286,133,-194,224,-80,-404,60,93,14,351,500,92,-81,-105,184,-10,-90,42,-192,234,665,561,-54,-383,66,190,-49,-69,13,-25,-118,1276,-229,-179,-112,90,144,-50,44,-310,102,244,-149,-146,-117,-25,196,0,2004,-100,-4,-2,-41,255,8,136,101,-64,-131,32,90,3978,-143,-61,-18,-124,323,-25,-303,-539,253,124,20,394,141,-42,320,-176,-222,57,-247,-118,7,-213,391,221,190,164,12,132,-200,139,-140,204,-292,-550,-142,142,124,74,-317,446,135,-448,523,50,-215,-79,327,-851,233,-51,140,125,4138,3,32,45,363,632,-5292,55,15,-64,-62,-514,-6,135,149,258,-373,306,-17,-176,584,247,493,-336,-81,240,-70,17,-260,571,-233,-25,-261,-13,-553,64,158,-384,327,262,4,77,27,-45,-81,-207,-304,-155,-164},
    {-73,75,-232,657,-70,1278,-70,-328,771,653,-171,-158,352,-257,100,-223,-208,-55,336,0,324,295,-31,281,-71,475,55,267,-72,141,-265,-71,250,-1015,221,345,-120,284,246,994,-79,224,-95,93,266,-12,-195,-12,-208,198,198,-460,116,64,204,-502,-346,-643,-153,43,-132,-106,94,3,243,160,-313,-31,796,-8238,68,-175,-37,-31,-24,211,-35,66,892,-198,107,231,-851,-1279,308,125,-162,367,92,478,77,-104,1000,-97,-140,133,1079,-259,238,70,308,-9,-145,61,-68,158,467,-95,147,477,321,1710,76,-207,124,480,366,-558,126,-166,56,230,422,105,24,-315,147,62,-71,-148,-303,22,-225,-64,-102,362,184,-164,-2513,115,119,262,469,-501,440,-293,-82,340,455,0,-125,222,523,631,-137,-112,185,495,963,-116,142,411,176,24,221,88,125,195,64,260,248,491,-76,595,17,1547,22,-115,314,-139,43,-5291,-673,-122,28,147,-258,24,72,52,21,-187,333,-133,263,-827,2,-86,-581,369,145,-314,26,3072,254,64,73,-22,-1531,130,-141,-250,-152,241,-771,753,-373,218,-164,-24,454,229,-147,949,158,-72,258,69,-247,10,350,-96,156,-103,465,-245,-29,-42,90,-123,-69,69,187,-98,169,305,118,16,-485,-853,154,250,166,31,34,367,-297,-382,121,-170,9,74,288,-182,-106,101,-133,-7,229,12,430,47,54,-135,-183,231,-181,-207,408,-367,203,349,123,156,-1053,113,-157,276,316,-239,430,-184,-509,-5,-396,146,71,519,0,79,399,252,-77,109,8,205,-20,-183,385,-1758,-272,-113,440,-92,-614,264,446,-139,468,429,-23,597,-74,432,65,660,122,-232,227,63,283,128,267,-413,243,5,225,396,130,-68,1,-2426,-524,-148,674,-117,188,-660,95,-222,190,-2066,158,-119,-429,57,-84,165,-7742,554,284,-143,-87,288,-243,-82,104,-229,202,1005,-446,-5,-407,-181,432,30,151,48,68,-21,1555,-296,-153,-102,109,52,-45,174,-117,363,337,186,-80,-126,195,196,-78,1054,-231,67,29,57,341,0,329,-3126,-446,-65,44,0,-1211,9,-283,-88,-12,173,28,174,-6513,56,188,101,298,139,11,171,-288,-167,170,-179,-98,56,-170,399,277,242,144,-49,185,-202,109,94,186,-179,-616,-176,197,183,195,-236,320,168,-124,501,-5,-240,-191,412,-82,163,106,319,56,881,119,72,34,343,895,-2025,-2533,43,-226,-47,-346,40,126,91,386,-388,281,-50,-67,445,412,253,-51,21,323,-92,373,-235,429,-358,-146,-15,-4,-273,167,280,-56,224,270,59,-53,106,-13,-102,-138,-364,-124,-12},
    {255,-21,-234,118,-84,-4509,-61,-428,373,424,-23,-167,310,1313,51,-225,62,-70,647,-69,335,330,-85,259,-23,291,262,152,-92,-115,-200,-96,97,-1066,279,149,-29,273,-313,569,-15,251,-194,180,-35,54,-260,58,-97,284,98,-437,40,46,281,-10,-392,-586,-225,-104,-26,-532,300,-120,719,104,3488,105,204,248,-912,-140,112,-27,-155,105,-175,-16,709,-252,218,135,-58,-1358,40,138,1310,118,32,413,124,-114,45,-81,29,216,332,-365,-17,204,284,-157,-116,93,-94,140,255,-36,-38,182,207,-630,192,-121,219,163,-1073,-847,67,-164,6,153,156,73,219,-294,221,223,-108,-197,-339,225,-264,228,-24,107,-13,-30,772,74,29,251,150,-456,-382,-117,76,385,372,-22,-169,188,562,476,591,103,292,-88,866,-149,184,353,124,35,140,119,149,121,332,171,138,412,-111,485,28,-646,-75,4046,121,-24,105,35,-544,-126,32,171,-289,12,44,-7,-152,-149,123,-219,291,-702,-38,-81,-613,805,105,-279,-121,395,315,314,-5481,53,-1517,17,3462,-1032,47,75,189,-496,-208,99,-258,71,225,313,-29,473,-9,-67,257,-33,-103,36,212,-245,109,-137,315,-102,-160,-2163,-5,-4,-141,98,173,-51,267,-98,102,38,-378,373,104,271,-17,-280,44,52,-186,-284,87,-208,172,99,183,62,56,16,3147,53,244,11,482,-36,122,49,1671,272,-714,-227,420,48,166,364,448,15,-1067,7,-1895,-385,349,-588,308,-73,-398,15,-470,87,84,478,96,95,344,54,-133,362,202,184,98,-251,43,-1585,502,171,258,21,-3691,117,388,-127,310,303,-17,383,-98,298,48,690,172,-128,-339,-127,829,300,490,540,-2875,60,138,650,260,-160,-226,424,223,-210,340,75,97,1399,564,-215,123,74,223,-87,-382,-34,-89,223,299,540,165,-29,-58,149,111,-112,-18,-155,290,612,391,-50,-265,189,475,1,45,-30,-127,76,-31,-251,-116,-123,173,28,-159,-627,-50,327,127,34,-37,-102,64,270,-61,343,-425,436,-86,64,316,6,376,1082,159,-56,2,27,4082,181,-244,-222,286,115,-57,304,-242,-151,-111,35,488,88,-41,211,2,-685,111,-214,-158,102,-174,369,335,169,216,-22,109,93,103,376,149,-167,-512,-93,797,177,110,-245,175,177,-502,309,56,-140,73,420,-79,190,1890,223,48,133,21,44,-9,321,689,-119,-2353,-203,-447,-61,-21,11,203,-155,273,-342,-49,-150,-214,399,785,542,-67,83,440,6,135,-237,713,-401,-164,-400,-116,-288,279,-16,-119,244,181,98,-108,146,-48,-105,-140,-352,-241,42},
    {1510,1128,-451,358,-44,1189,-119,834,447,612,-379,-104,326,-183,89,-302,-204,-84,208,-100,353,398,38,347,-15,286,-1306,77,-141,255,-237,-79,-996,-1116,219,334,303,367,446,688,-78,266,-244,632,-46,-72,-150,-99,37,536,2,35,-178,108,245,-211,-399,-628,-407,94,89,151,-709,20,164,83,-453,-5,175,-82,-765,-207,-141,-8,409,-47,38,-511,909,-309,395,185,-9,-506,95,99,41,-32,10,375,-68,-167,27,-80,2,393,221,-376,-4757,101,151,365,3,64,-96,121,270,-42,-25,110,269,333,140,-164,57,90,-34,-467,556,-206,494,119,24,2317,45,-378,261,130,381,-791,-320,-430,-83,-120,22,-4,43,37,-280,-13,47,-132,708,-365,-239,-209,8,507,-147,-108,237,188,368,461,10,-23,404,447,658,-193,223,396,185,56,135,361,123,92,71,122,181,226,-11,852,48,-134,98,-426,-1,29,-83,400,-600,-37,167,175,-540,153,538,-6,125,-194,-61,-202,242,-743,-110,-34,-548,853,13,-284,-165,232,242,310,-177,-3301,-1400,919,-88,-50,-308,81,74,224,-321,212,311,-22,239,57,-88,327,-3803,-153,316,97,-334,121,8,-40,124,-125,277,-307,-39,-19,46,4,-368,57,209,-127,168,593,208,110,-393,393,67,164,-177,-179,-278,-26,-146,-411,194,-47,-13,57,199,-370,-32,107,-1497,47,284,-6,222,180,321,31,-6588,-2617,-822,177,419,241,264,323,182,177,-1160,19,-236,412,366,-645,284,-371,-414,-22,-388,0,-440,479,25,94,214,319,-293,-18,231,296,82,-196,9,-1606,-139,-267,250,133,60,449,27,-279,255,73,-23,442,-142,422,-50,449,192,-280,169,-67,314,-326,527,2,1032,85,-233,555,134,-246,-76,115,157,-120,247,-157,141,-366,1466,-200,104,96,122,-136,-418,-123,70,-254,10,484,341,-78,-258,50,38,15,-191,-224,317,38,-177,-37,-78,-946,425,10,103,53,-180,0,-24,-106,160,-100,666,-34,-202,723,47,746,-464,128,47,-30,115,211,-332,73,-1544,67,-76,58,292,10,474,-3053,26,-23,70,-91,135,295,-160,-132,99,409,281,-5,603,156,186,-195,250,153,202,-14,-732,-17,294,-103,-63,96,-187,365,219,166,238,-69,242,-336,30,425,161,-142,-528,-28,116,41,179,-167,349,106,73,248,224,-419,49,571,231,150,-261,424,37,10,112,44,-195,322,323,390,-14,-72,-2929,-42,30,-52,325,-318,375,-321,-97,-84,538,404,564,403,-91,109,497,-298,669,-146,501,-735,-246,4198,-41,-238,76,-114,-7,173,180,121,-169,51,-2,-109,-169,-158,-54,16},
    {115,-3928,-290,119,-115,131,-77,-297,218,266,-32,215,310,127,-11,-150,-1705,-32,112,158,375,313,-92,232,-98,257,-18,-162,-93,4781,-231,-120,99,-1129,265,76,2094,107,-858,534,-3363,306,166,426,-393,63,-163,35,-24,169,73,541,-1,112,227,265,-226,-610,-403,-65,-106,-180,121,-105,-20,86,-389,-22,168,13,214,-297,-75,109,3865,-189,-6,-194,697,-92,274,118,8,-2,41,-7,-35,253,21,417,260,-76,17,-86,144,535,-124,-8,106,-26,137,-73,-268,-41,66,42,338,71,29,143,103,31,77,-52,330,129,-810,55,336,-162,574,-86,-104,-478,-308,91,321,-31,2416,-75,-366,-40,-128,82,292,45,-23,-36,49,-25,137,-141,37,-542,-79,-170,404,101,217,612,-133,244,202,559,-288,-341,1096,-16,748,72,340,267,191,-70,78,125,10,237,99,291,235,485,-255,353,-70,350,-13,290,1413,6,-580,-69,-574,1950,285,43,-691,327,647,534,-169,-258,-273,-490,341,-791,-160,15,-630,564,93,-244,-283,-64,163,75,126,43,-119,67,-112,314,-60,281,89,-235,-261,272,3304,175,265,-488,-290,-57,1,-152,377,73,-66,115,-50,-137,812,-211,318,-180,-78,-85,114,-16,-394,241,218,-56,145,-25,-73,86,-324,267,157,301,-162,-195,-90,111,25,-204,124,-181,2714,115,100,-9,-114,335,1884,104,338,339,427,83,412,-57,1357,840,-52,-316,353,306,541,372,-34,129,-1038,-84,166,13,315,-171,238,-22,-249,-49,-491,-300,-397,472,47,227,91,200,-236,-5817,325,-50,17,-714,-86,152,224,51,398,383,178,332,604,-84,132,-233,1035,167,-159,137,20,187,258,-221,-274,-120,89,191,375,-86,-2397,81,-115,1551,144,-34,-24,15,44,-272,241,366,23,264,598,-334,-18,-185,176,-113,-506,-10,-28,-1807,-108,331,230,-578,-127,-277,114,77,-116,-383,281,-124,-65,-221,-210,332,123,106,110,132,-88,24,-52,-298,13,-104,-3273,85,-270,-643,0,1024,-565,46,-19,-111,170,248,-183,-33,-446,517,-139,325,311,62,253,118,-53,66,-223,114,-74,323,-285,371,1171,573,-1005,38,171,-462,2920,815,827,243,-110,138,-189,-587,151,136,-68,-5,-173,301,175,208,-51,-42,478,-15,348,307,133,51,-499,308,303,222,-31,-267,731,266,-60,249,13,-216,241,273,235,76,3312,647,26,-2,44,31,79,354,169,80,131,-1562,-174,140,685,41,385,-337,296,-315,138,-185,-334,449,403,509,-114,149,312,-112,-41,-260,308,-243,-184,176,-73,-118,663,-547,51,217,135,41,-171,-746,4449,91,-177,204,4023,40},
    {-237,1435,-115,23,-88,314,-406,612,323,305,-546,194,298,46,532,-259,-170,-615,-90,-126,344,254,-13,203,-99,233,-22,-355,-125,107,-283,-56,315,-1032,348,990,31,173,292,340,36,443,764,-4976,-173,-517,-214,-15,-132,59,78,648,57,84,-639,-118,-258,-599,-840,1006,-227,-57,-88,-104,24,181,-128,-75,99,38,269,449,143,22,285,-314,53,-205,885,-27,230,254,34,76,-4,3,-321,2403,66,-94,151,-76,43,-122,-54,337,-62,-154,37,-42,-47,53,562,92,393,8,460,23,377,116,49,-96,61,4566,-26,163,266,-228,810,-97,596,265,-70,1958,-410,230,259,-346,83,-144,-405,21,270,128,-98,-5,0,55,175,47,74,-386,218,551,-133,-96,157,365,84,-944,236,263,313,978,-166,121,1048,-75,280,-27,318,430,245,-283,32,137,73,334,120,190,160,176,-29,865,-198,76,-34,30,-10,148,-607,69,-584,63,300,106,-783,245,465,164,315,-198,-301,-74,221,-775,-162,130,-536,840,254,-214,-292,94,60,231,40,80,168,439,160,357,-313,478,104,66,-123,158,4228,352,166,155,-218,39,149,-226,295,962,-59,321,-118,31,54,-176,110,-299,58,-60,152,13,-178,418,209,-242,110,256,114,28,-391,171,-1,234,-67,290,-149,108,75,-25,148,-92,1004,199,118,-185,207,31,-101,176,373,542,371,125,359,-50,62,-2642,-113,21,314,339,142,406,-168,60,-1026,-75,-120,-42,354,-118,210,59,-440,117,-322,-89,-317,469,132,-96,13,398,143,18,156,192,70,1855,-183,196,123,-73,236,1225,224,528,87,-47,191,-210,-82,482,-179,123,-276,173,191,-338,-28,8,23,-80,325,-158,186,-501,-241,398,148,-6255,-25,-63,7,-302,289,-660,158,-362,146,674,-1593,-74,107,-92,-634,-370,5,-154,41,273,346,146,-253,299,197,-42,-413,-601,8,-185,-183,-243,-125,-237,57,175,105,89,204,24,-122,-187,-79,-140,513,110,-213,178,12,1039,-595,-74,231,162,86,202,222,-48,-149,-40,-153,101,332,120,286,181,6,-159,-275,83,-135,40,-302,2082,-181,280,581,18,191,-65,123,2447,385,287,-5864,-14,-211,-420,248,175,3,267,-285,321,-116,222,51,47,1561,-214,635,-66,142,-75,-528,2739,168,141,174,-243,421,351,147,374,-3836,-196,-54,341,194,-102,-126,704,-99,-39,62,301,161,325,235,261,184,-115,-245,1276,313,5,229,-247,1361,-298,116,2,495,505,30,236,-273,393,223,-190,-207,-256,179,-646,73,95,-533,-158,-649,-155,251,276,147,78,-409,-2343,110,919,-187,299,-870,21},
    {-75,45,528,189,-240,376,-1314,-344,265,314,201,254,328,25,-147,-260,-20,116,139,154,369,170,-146,67,-161,332,105,-515,-101,-234,-320,-39,193,-1020,525,47,-194,132,3,287,-15,469,243,4,-295,1283,-14,-4671,-161,-20,78,369,24,209,-1007,-27,-220,-673,-438,100,-404,-90,29,-43,-118,93,-138,34,61,76,252,19,-185,162,-241,-242,131,-206,932,-61,312,-13,11,83,7,446,-246,254,-25,23,715,-33,30,-136,332,802,-25,71,128,-88,-223,16,-128,-377,531,32,488,-234,131,231,1,5,-58,-1038,224,198,348,-232,-58,-112,100,-60,-107,145,-441,239,252,-342,110,-98,-493,37,-72,51,-190,20,79,72,102,-11,333,-118,19,-644,-156,-314,595,-2,286,75,83,-768,197,384,-198,116,1074,-93,571,33,911,255,349,-431,64,131,30,120,174,139,187,410,-153,645,-312,116,-69,-23,958,1142,-539,130,-557,-68,252,1899,-564,29,726,619,25,-770,-309,-292,303,-726,-197,68,-472,566,35,-110,-165,57,280,52,-48,37,172,17,-21,421,-117,1212,138,-13,-221,224,299,488,212,150,3,26,44,-272,-514,648,47,452,28,120,155,-160,227,-244,1833,-127,620,-52,-157,249,350,-30,43,111,150,-105,-326,157,103,289,-94,7,-377,125,38,-11,183,682,143,227,161,-11,134,259,-177,94,421,618,239,315,74,-175,182,224,-19,-110,573,267,169,398,-323,-15,-1055,587,-210,-243,453,-189,255,-7,639,216,-456,29,-96,461,-583,-3583,-40,322,-134,37,414,153,44,-379,-225,250,49,-14,353,573,103,404,318,-73,255,285,1180,286,-213,245,111,103,152,-311,144,-109,32,119,205,-99,128,-184,-362,394,129,75,67,-107,-9,-170,241,510,43,-322,101,1095,93,-69,150,-106,-696,28,60,157,68,283,215,20,-207,-220,213,0,-140,-609,-274,-242,-119,-109,-44,-13,201,162,172,174,210,20,-135,-301,154,-182,91,-166,-191,37,35,1022,14,-88,55,4162,-42,366,-89,-59,-143,-169,1304,1196,372,566,291,143,-46,-3261,-263,970,-104,50,6,-120,-166,258,-103,-2,101,-939,500,-56,1568,327,78,76,-234,-308,202,733,1338,332,-310,452,-31,306,-1,145,1144,-218,665,-66,84,-78,-507,2401,189,243,-3,-242,1575,698,2,537,-137,-222,94,385,201,-185,-94,669,40,35,293,60,110,350,151,137,175,-218,-48,-344,78,2,332,-159,339,-313,-77,-132,-143,541,-34,441,-296,689,264,-94,-134,-316,224,-868,-40,-4,2448,-24,418,-455,240,245,127,-372,-218,-888,-36,63,-213,625,3297,72},
